digraph Tree {
node [shape=box, style="rounded", color="black", fontname=helvetica] ;
edge [fontname=helvetica] ;
0 [label="price_pr <= 0.9\nmse = 124.7\nsamples = 5490\nvalue = 10.0"] ;
1 [label="price <= 3.4\nmse = 76.7\nsamples = 4169\nvalue = 8.2"] ;
0 -> 1 [labeldistance=2.5, labelangle=45, headlabel="True"] ;
2 [label="OTHER_BRAND <= 0.5\nmse = 114.3\nsamples = 1484\nvalue = 10.3"] ;
1 -> 2 ;
3 [label="TOASTED <= 0.5\nmse = 129.2\nsamples = 672\nvalue = 12.0"] ;
2 -> 3 ;
4 [label="vol_eq <= 1.6\nmse = 114.2\nsamples = 609\nvalue = 11.3"] ;
3 -> 4 ;
5 [label="price <= 2.6\nmse = 108.9\nsamples = 606\nvalue = 11.2"] ;
4 -> 5 ;
6 [label="vol_eq <= 0.7\nmse = 214.9\nsamples = 105\nvalue = 15.6"] ;
5 -> 6 ;
7 [label="COCOA <= 0.5\nmse = 148.8\nsamples = 46\nvalue = 11.1"] ;
6 -> 7 ;
8 [label="Display_2 <= 0.5\nmse = 106.7\nsamples = 45\nvalue = 9.7"] ;
7 -> 8 ;
9 [label="MULTI GRAIN <= 0.5\nmse = 67.9\nsamples = 43\nvalue = 8.5"] ;
8 -> 9 ;
10 [label="CORN <= 0.5\nmse = 22.5\nsamples = 32\nvalue = 6.6"] ;
9 -> 10 ;
11 [label="vol_eq <= 0.7\nmse = 10.6\nsamples = 17\nvalue = 4.5"] ;
10 -> 11 ;
12 [label="price <= 0.9\nmse = 8.0\nsamples = 16\nvalue = 4.1"] ;
11 -> 12 ;
13 [label="GENERAL MILLS <= 0.5\nmse = 5.9\nsamples = 5\nvalue = 7.5"] ;
12 -> 13 ;
14 [label="OAT BRAN <= 0.5\nmse = 2.2\nsamples = 2\nvalue = 10.5"] ;
13 -> 14 ;
15 [label="mse = 0.0\nsamples = 1\nvalue = 9.0"] ;
14 -> 15 ;
16 [label="mse = 0.0\nsamples = 1\nvalue = 12.0"] ;
14 -> 16 ;
17 [label="WHOLE GRAIN OAT <= 0.5\nmse = 1.0\nsamples = 3\nvalue = 6.0"] ;
13 -> 17 ;
18 [label="mse = 0.0\nsamples = 1\nvalue = 5.0"] ;
17 -> 18 ;
19 [label="price <= 0.5\nmse = 0.9\nsamples = 2\nvalue = 6.3"] ;
17 -> 19 ;
20 [label="mse = 0.0\nsamples = 1\nvalue = 5.0"] ;
19 -> 20 ;
21 [label="mse = 0.0\nsamples = 1\nvalue = 7.0"] ;
19 -> 21 ;
22 [label="QUAKER <= 0.5\nmse = 3.9\nsamples = 11\nvalue = 3.1"] ;
12 -> 22 ;
23 [label="WHOLE GRAIN WHEAT <= 0.5\nmse = 2.4\nsamples = 10\nvalue = 2.6"] ;
22 -> 23 ;
24 [label="TOASTED HONEY <= 0.5\nmse = 1.2\nsamples = 9\nvalue = 2.3"] ;
23 -> 24 ;
25 [label="vol_eq <= 0.1\nmse = 0.4\nsamples = 7\nvalue = 2.1"] ;
24 -> 25 ;
26 [label="mse = 0.8\nsamples = 2\nvalue = 2.5"] ;
25 -> 26 ;
27 [label="CUP <= 0.5\nmse = 0.1\nsamples = 5\nvalue = 1.9"] ;
25 -> 27 ;
28 [label="mse = 0.0\nsamples = 3\nvalue = 2.0"] ;
27 -> 28 ;
29 [label="mse = 0.2\nsamples = 2\nvalue = 1.5"] ;
27 -> 29 ;
30 [label="mse = 4.0\nsamples = 2\nvalue = 4.0"] ;
24 -> 30 ;
31 [label="mse = 0.0\nsamples = 1\nvalue = 7.0"] ;
23 -> 31 ;
32 [label="mse = 0.0\nsamples = 1\nvalue = 7.0"] ;
22 -> 32 ;
33 [label="mse = 0.0\nsamples = 1\nvalue = 13.0"] ;
11 -> 33 ;
34 [label="price <= 0.4\nmse = 24.6\nsamples = 15\nvalue = 9.2"] ;
10 -> 34 ;
35 [label="mse = 0.0\nsamples = 1\nvalue = 19.0"] ;
34 -> 35 ;
36 [label="price <= 1.7\nmse = 20.8\nsamples = 14\nvalue = 8.8"] ;
34 -> 36 ;
37 [label="price <= 1.5\nmse = 19.7\nsamples = 13\nvalue = 8.2"] ;
36 -> 37 ;
38 [label="price <= 0.7\nmse = 14.9\nsamples = 11\nvalue = 9.1"] ;
37 -> 38 ;
39 [label="Display_1 <= 0.5\nmse = 0.2\nsamples = 2\nvalue = 5.3"] ;
38 -> 39 ;
40 [label="mse = 0.0\nsamples = 1\nvalue = 6.0"] ;
39 -> 40 ;
41 [label="mse = 0.0\nsamples = 1\nvalue = 5.0"] ;
39 -> 41 ;
42 [label="price <= 0.8\nmse = 14.4\nsamples = 9\nvalue = 9.9"] ;
38 -> 42 ;
43 [label="mse = 0.0\nsamples = 1\nvalue = 16.0"] ;
42 -> 43 ;
44 [label="price <= 1.0\nmse = 12.2\nsamples = 8\nvalue = 9.4"] ;
42 -> 44 ;
45 [label="vol_eq <= 0.1\nmse = 10.2\nsamples = 4\nvalue = 8.8"] ;
44 -> 45 ;
46 [label="mse = 16.2\nsamples = 3\nvalue = 8.6"] ;
45 -> 46 ;
47 [label="mse = 0.0\nsamples = 1\nvalue = 9.0"] ;
45 -> 47 ;
48 [label="vol_eq <= 0.1\nmse = 13.7\nsamples = 4\nvalue = 10.8"] ;
44 -> 48 ;
49 [label="mse = 1.0\nsamples = 2\nvalue = 9.0"] ;
48 -> 49 ;
50 [label="Display_0 <= 0.5\nmse = 20.2\nsamples = 2\nvalue = 12.5"] ;
48 -> 50 ;
51 [label="mse = 0.0\nsamples = 1\nvalue = 8.0"] ;
50 -> 51 ;
52 [label="mse = 0.0\nsamples = 1\nvalue = 17.0"] ;
50 -> 52 ;
53 [label="mse = 0.0\nsamples = 2\nvalue = 1.0"] ;
37 -> 53 ;
54 [label="mse = 0.0\nsamples = 1\nvalue = 14.0"] ;
36 -> 54 ;
55 [label="price <= 1.1\nmse = 160.8\nsamples = 11\nvalue = 14.7"] ;
9 -> 55 ;
56 [label="Display_1 <= 0.5\nmse = 157.9\nsamples = 7\nvalue = 19.9"] ;
55 -> 56 ;
57 [label="price <= 0.8\nmse = 58.2\nsamples = 6\nvalue = 14.6"] ;
56 -> 57 ;
58 [label="pr <= 0.5\nmse = 40.2\nsamples = 4\nvalue = 18.8"] ;
57 -> 58 ;
59 [label="vol_eq <= 0.1\nmse = 31.2\nsamples = 3\nvalue = 20.8"] ;
58 -> 59 ;
60 [label="mse = 56.2\nsamples = 2\nvalue = 22.5"] ;
59 -> 60 ;
61 [label="mse = 0.0\nsamples = 1\nvalue = 19.0"] ;
59 -> 61 ;
62 [label="mse = 0.0\nsamples = 1\nvalue = 11.0"] ;
58 -> 62 ;
63 [label="Feature_B <= 0.5\nmse = 10.9\nsamples = 2\nvalue = 7.7"] ;
57 -> 63 ;
64 [label="mse = 0.0\nsamples = 1\nvalue = 3.0"] ;
63 -> 64 ;
65 [label="mse = 0.0\nsamples = 1\nvalue = 10.0"] ;
63 -> 65 ;
66 [label="mse = 0.0\nsamples = 1\nvalue = 41.0"] ;
56 -> 66 ;
67 [label="Display_0 <= 0.5\nmse = 2.2\nsamples = 4\nvalue = 4.2"] ;
55 -> 67 ;
68 [label="mse = 2.2\nsamples = 2\nvalue = 5.5"] ;
67 -> 68 ;
69 [label="BOX <= 0.5\nmse = 0.2\nsamples = 2\nvalue = 3.3"] ;
67 -> 69 ;
70 [label="mse = 0.0\nsamples = 1\nvalue = 3.0"] ;
69 -> 70 ;
71 [label="mse = 0.0\nsamples = 1\nvalue = 4.0"] ;
69 -> 71 ;
72 [label="Feature_B <= 0.5\nmse = 338.0\nsamples = 2\nvalue = 33.0"] ;
8 -> 72 ;
73 [label="mse = 0.0\nsamples = 1\nvalue = 46.0"] ;
72 -> 73 ;
74 [label="mse = 0.0\nsamples = 1\nvalue = 7.0"] ;
72 -> 74 ;
75 [label="mse = 0.0\nsamples = 1\nvalue = 43.0"] ;
7 -> 75 ;
76 [label="Display_1 <= 0.5\nmse = 239.5\nsamples = 59\nvalue = 19.4"] ;
6 -> 76 ;
77 [label="WHOLE GRAIN OAT <= 0.5\nmse = 186.1\nsamples = 58\nvalue = 18.2"] ;
76 -> 77 ;
78 [label="vol_eq <= 1.0\nmse = 112.1\nsamples = 51\nvalue = 16.3"] ;
77 -> 78 ;
79 [label="WHOLE GRAIN WHEAT <= 0.5\nmse = 111.3\nsamples = 47\nvalue = 17.1"] ;
78 -> 79 ;
80 [label="WHOLE GRN WHT & BRLY <= 0.5\nmse = 106.8\nsamples = 45\nvalue = 17.6"] ;
79 -> 80 ;
81 [label="PEANUT BUTTER <= 0.5\nmse = 102.0\nsamples = 44\nvalue = 18.1"] ;
80 -> 81 ;
82 [label="HONEY ROASTED <= 0.5\nmse = 98.8\nsamples = 35\nvalue = 19.7"] ;
81 -> 82 ;
83 [label="price <= 2.0\nmse = 97.2\nsamples = 34\nvalue = 20.4"] ;
82 -> 83 ;
84 [label="COCOA <= 0.5\nmse = 37.6\nsamples = 3\nvalue = 32.7"] ;
83 -> 84 ;
85 [label="Feature_A <= 0.5\nmse = 12.2\nsamples = 2\nvalue = 36.5"] ;
84 -> 85 ;
86 [label="mse = 0.0\nsamples = 1\nvalue = 40.0"] ;
85 -> 86 ;
87 [label="mse = 0.0\nsamples = 1\nvalue = 33.0"] ;
85 -> 87 ;
88 [label="mse = 0.0\nsamples = 1\nvalue = 25.0"] ;
84 -> 88 ;
89 [label="Feature_NONE <= 0.5\nmse = 89.6\nsamples = 31\nvalue = 19.5"] ;
83 -> 89 ;
90 [label="price <= 2.1\nmse = 6.9\nsamples = 3\nvalue = 7.7"] ;
89 -> 90 ;
91 [label="mse = 0.0\nsamples = 1\nvalue = 4.0"] ;
90 -> 91 ;
92 [label="Feature_A <= 0.5\nmse = 0.2\nsamples = 2\nvalue = 9.5"] ;
90 -> 92 ;
93 [label="mse = 0.0\nsamples = 1\nvalue = 9.0"] ;
92 -> 93 ;
94 [label="mse = 0.0\nsamples = 1\nvalue = 10.0"] ;
92 -> 94 ;
95 [label="price <= 2.3\nmse = 84.0\nsamples = 28\nvalue = 20.5"] ;
89 -> 95 ;
96 [label="price <= 2.1\nmse = 36.6\nsamples = 3\nvalue = 26.4"] ;
95 -> 96 ;
97 [label="mse = 0.0\nsamples = 1\nvalue = 16.0"] ;
96 -> 97 ;
98 [label="vol_eq <= 1.0\nmse = 12.0\nsamples = 2\nvalue = 29.0"] ;
96 -> 98 ;
99 [label="mse = 0.0\nsamples = 1\nvalue = 35.0"] ;
98 -> 99 ;
100 [label="mse = 0.0\nsamples = 1\nvalue = 27.0"] ;
98 -> 100 ;
101 [label="price <= 2.5\nmse = 85.1\nsamples = 25\nvalue = 19.5"] ;
95 -> 101 ;
102 [label="price <= 2.4\nmse = 31.5\nsamples = 7\nvalue = 14.0"] ;
101 -> 102 ;
103 [label="price <= 2.4\nmse = 8.6\nsamples = 5\nvalue = 17.8"] ;
102 -> 103 ;
104 [label="CORN <= 0.5\nmse = 2.2\nsamples = 4\nvalue = 16.5"] ;
103 -> 104 ;
105 [label="price <= 2.3\nmse = 0.2\nsamples = 3\nvalue = 15.7"] ;
104 -> 105 ;
106 [label="mse = 0.0\nsamples = 1\nvalue = 15.0"] ;
105 -> 106 ;
107 [label="mse = 0.0\nsamples = 2\nvalue = 16.0"] ;
105 -> 107 ;
108 [label="mse = 0.0\nsamples = 1\nvalue = 19.0"] ;
104 -> 108 ;
109 [label="mse = 0.0\nsamples = 1\nvalue = 23.0"] ;
103 -> 109 ;
110 [label="FRUIT <= 0.5\nmse = 5.6\nsamples = 2\nvalue = 7.7"] ;
102 -> 110 ;
111 [label="mse = 0.0\nsamples = 1\nvalue = 6.0"] ;
110 -> 111 ;
112 [label="mse = 0.0\nsamples = 1\nvalue = 11.0"] ;
110 -> 112 ;
113 [label="MULTI GRAIN <= 0.5\nmse = 89.3\nsamples = 18\nvalue = 21.4"] ;
101 -> 113 ;
114 [label="HONEY <= 0.5\nmse = 83.8\nsamples = 17\nvalue = 22.0"] ;
113 -> 114 ;
115 [label="REGULAR <= 0.5\nmse = 86.7\nsamples = 16\nvalue = 22.7"] ;
114 -> 115 ;
116 [label="price <= 2.6\nmse = 82.7\nsamples = 9\nvalue = 24.5"] ;
115 -> 116 ;
117 [label="price <= 2.5\nmse = 89.1\nsamples = 8\nvalue = 24.3"] ;
116 -> 117 ;
118 [label="mse = 0.0\nsamples = 1\nvalue = 26.0"] ;
117 -> 118 ;
119 [label="COCOA <= 0.5\nmse = 106.2\nsamples = 7\nvalue = 24.0"] ;
117 -> 119 ;
120 [label="OAT AND CORN <= 0.5\nmse = 15.2\nsamples = 4\nvalue = 23.3"] ;
119 -> 120 ;
121 [label="mse = 0.0\nsamples = 1\nvalue = 24.0"] ;
120 -> 121 ;
122 [label="mse = 18.2\nsamples = 3\nvalue = 23.2"] ;
120 -> 122 ;
123 [label="vol_eq <= 0.8\nmse = 241.0\nsamples = 3\nvalue = 25.0"] ;
119 -> 123 ;
124 [label="mse = 320.9\nsamples = 2\nvalue = 24.7"] ;
123 -> 124 ;
125 [label="mse = 0.0\nsamples = 1\nvalue = 26.0"] ;
123 -> 125 ;
126 [label="mse = 0.0\nsamples = 1\nvalue = 27.0"] ;
116 -> 126 ;
127 [label="price <= 2.5\nmse = 78.2\nsamples = 7\nvalue = 19.6"] ;
115 -> 127 ;
128 [label="CORN <= 0.5\nmse = 71.0\nsamples = 6\nvalue = 21.1"] ;
127 -> 128 ;
129 [label="Display_2 <= 0.5\nmse = 83.8\nsamples = 4\nvalue = 22.6"] ;
128 -> 129 ;
130 [label="KELLOGGS <= 0.5\nmse = 116.2\nsamples = 3\nvalue = 25.7"] ;
129 -> 130 ;
131 [label="mse = 169.0\nsamples = 2\nvalue = 27.0"] ;
130 -> 131 ;
132 [label="mse = 0.0\nsamples = 1\nvalue = 23.0"] ;
130 -> 132 ;
133 [label="mse = 0.0\nsamples = 1\nvalue = 18.0"] ;
129 -> 133 ;
134 [label="vol_eq <= 0.8\nmse = 20.2\nsamples = 2\nvalue = 17.5"] ;
128 -> 134 ;
135 [label="mse = 0.0\nsamples = 1\nvalue = 13.0"] ;
134 -> 135 ;
136 [label="mse = 0.0\nsamples = 1\nvalue = 22.0"] ;
134 -> 136 ;
137 [label="mse = 0.0\nsamples = 1\nvalue = 9.0"] ;
127 -> 137 ;
138 [label="mse = 0.0\nsamples = 1\nvalue = 15.0"] ;
114 -> 138 ;
139 [label="mse = 0.0\nsamples = 1\nvalue = 7.0"] ;
113 -> 139 ;
140 [label="mse = 0.0\nsamples = 1\nvalue = 9.0"] ;
82 -> 140 ;
141 [label="price <= 2.2\nmse = 78.1\nsamples = 9\nvalue = 13.0"] ;
81 -> 141 ;
142 [label="price <= 2.1\nmse = 21.8\nsamples = 4\nvalue = 11.2"] ;
141 -> 142 ;
143 [label="price <= 2.1\nmse = 4.2\nsamples = 3\nvalue = 14.2"] ;
142 -> 143 ;
144 [label="mse = 0.9\nsamples = 2\nvalue = 15.3"] ;
143 -> 144 ;
145 [label="mse = 0.0\nsamples = 1\nvalue = 11.0"] ;
143 -> 145 ;
146 [label="mse = 0.0\nsamples = 1\nvalue = 5.0"] ;
142 -> 146 ;
147 [label="price <= 2.4\nmse = 116.0\nsamples = 5\nvalue = 14.4"] ;
141 -> 147 ;
148 [label="mse = 0.0\nsamples = 1\nvalue = 23.0"] ;
147 -> 148 ;
149 [label="mse = 121.6\nsamples = 4\nvalue = 11.5"] ;
147 -> 149 ;
150 [label="mse = 0.0\nsamples = 1\nvalue = 2.0"] ;
80 -> 150 ;
151 [label="MISSING <= 0.5\nmse = 0.2\nsamples = 2\nvalue = 1.5"] ;
79 -> 151 ;
152 [label="mse = 0.0\nsamples = 1\nvalue = 1.0"] ;
151 -> 152 ;
153 [label="mse = 0.0\nsamples = 1\nvalue = 2.0"] ;
151 -> 153 ;
154 [label="WHOLE GRAIN WHEAT <= 0.5\nmse = 7.6\nsamples = 4\nvalue = 6.0"] ;
78 -> 154 ;
155 [label="REGULAR <= 0.5\nmse = 2.7\nsamples = 3\nvalue = 4.0"] ;
154 -> 155 ;
156 [label="Feature_A <= 0.5\nmse = 1.0\nsamples = 2\nvalue = 5.0"] ;
155 -> 156 ;
157 [label="mse = 0.0\nsamples = 1\nvalue = 4.0"] ;
156 -> 157 ;
158 [label="mse = 0.0\nsamples = 1\nvalue = 6.0"] ;
156 -> 158 ;
159 [label="mse = 0.0\nsamples = 1\nvalue = 2.0"] ;
155 -> 159 ;
160 [label="mse = 0.0\nsamples = 1\nvalue = 9.0"] ;
154 -> 160 ;
161 [label="price <= 2.4\nmse = 506.9\nsamples = 7\nvalue = 33.0"] ;
77 -> 161 ;
162 [label="price <= 2.0\nmse = 74.9\nsamples = 3\nvalue = 13.3"] ;
161 -> 162 ;
163 [label="mse = 0.0\nsamples = 1\nvalue = 2.0"] ;
162 -> 163 ;
164 [label="price <= 2.3\nmse = 16.0\nsamples = 2\nvalue = 19.0"] ;
162 -> 164 ;
165 [label="mse = 0.0\nsamples = 1\nvalue = 23.0"] ;
164 -> 165 ;
166 [label="mse = 0.0\nsamples = 1\nvalue = 15.0"] ;
164 -> 166 ;
167 [label="CINNAMON <= 0.5\nmse = 432.8\nsamples = 4\nvalue = 42.8"] ;
161 -> 167 ;
168 [label="mse = 0.0\nsamples = 1\nvalue = 40.0"] ;
167 -> 168 ;
169 [label="mse = 643.2\nsamples = 3\nvalue = 44.2"] ;
167 -> 169 ;
170 [label="mse = 0.0\nsamples = 1\nvalue = 67.0"] ;
76 -> 170 ;
171 [label="vol_eq <= 1.0\nmse = 84.0\nsamples = 501\nvalue = 10.3"] ;
5 -> 171 ;
172 [label="CORN <= 0.5\nmse = 66.8\nsamples = 362\nvalue = 9.1"] ;
171 -> 172 ;
173 [label="MULTI GRAIN <= 0.5\nmse = 57.3\nsamples = 320\nvalue = 8.6"] ;
172 -> 173 ;
174 [label="CHOC PEANUT BUTTER <= 0.5\nmse = 48.7\nsamples = 290\nvalue = 8.3"] ;
173 -> 174 ;
175 [label="price <= 3.0\nmse = 44.8\nsamples = 282\nvalue = 8.0"] ;
174 -> 175 ;
176 [label="price <= 2.7\nmse = 52.0\nsamples = 156\nvalue = 8.9"] ;
175 -> 176 ;
177 [label="price <= 2.7\nmse = 8.5\nsamples = 28\nvalue = 6.1"] ;
176 -> 177 ;
178 [label="QUAKER <= 0.5\nmse = 7.8\nsamples = 24\nvalue = 6.5"] ;
177 -> 178 ;
179 [label="price <= 2.7\nmse = 8.9\nsamples = 11\nvalue = 8.1"] ;
178 -> 179 ;
180 [label="CINNAMON TOAST <= 0.5\nmse = 7.0\nsamples = 7\nvalue = 7.1"] ;
179 -> 180 ;
181 [label="COCOA <= 0.5\nmse = 3.9\nsamples = 6\nvalue = 6.5"] ;
180 -> 181 ;
182 [label="OAT AND CORN <= 0.5\nmse = 0.5\nsamples = 4\nvalue = 7.0"] ;
181 -> 182 ;
183 [label="WHOLE GRAIN WHEAT <= 0.5\nmse = 0.2\nsamples = 3\nvalue = 7.3"] ;
182 -> 183 ;
184 [label="mse = 0.0\nsamples = 2\nvalue = 7.0"] ;
183 -> 184 ;
185 [label="mse = 0.0\nsamples = 1\nvalue = 8.0"] ;
183 -> 185 ;
186 [label="mse = 0.0\nsamples = 1\nvalue = 6.0"] ;
182 -> 186 ;
187 [label="mse = 12.2\nsamples = 2\nvalue = 4.5"] ;
181 -> 187 ;
188 [label="mse = 0.0\nsamples = 1\nvalue = 13.0"] ;
180 -> 188 ;
189 [label="FRUIT <= 0.5\nmse = 3.0\nsamples = 4\nvalue = 11.0"] ;
179 -> 189 ;
190 [label="mse = 0.0\nsamples = 2\nvalue = 12.0"] ;
189 -> 190 ;
191 [label="mse = 4.0\nsamples = 2\nvalue = 10.0"] ;
189 -> 191 ;
192 [label="WHEAT <= 0.5\nmse = 4.7\nsamples = 13\nvalue = 5.5"] ;
178 -> 192 ;
193 [label="BERRY <= 0.5\nmse = 3.2\nsamples = 12\nvalue = 5.9"] ;
192 -> 193 ;
194 [label="price <= 2.7\nmse = 2.9\nsamples = 11\nvalue = 6.4"] ;
193 -> 194 ;
195 [label="REGULAR <= 0.5\nmse = 3.1\nsamples = 6\nvalue = 6.0"] ;
194 -> 195 ;
196 [label="price <= 2.6\nmse = 2.3\nsamples = 4\nvalue = 5.9"] ;
195 -> 196 ;
197 [label="mse = 3.5\nsamples = 2\nvalue = 5.8"] ;
196 -> 197 ;
198 [label="mse = 0.0\nsamples = 2\nvalue = 6.0"] ;
196 -> 198 ;
199 [label="mse = 6.2\nsamples = 2\nvalue = 6.5"] ;
195 -> 199 ;
200 [label="HONEY & OATS <= 0.5\nmse = 2.0\nsamples = 5\nvalue = 7.0"] ;
194 -> 200 ;
201 [label="Display_0 <= 0.5\nmse = 0.9\nsamples = 4\nvalue = 7.7"] ;
200 -> 201 ;
202 [label="mse = 0.0\nsamples = 1\nvalue = 7.0"] ;
201 -> 202 ;
203 [label="Feature_A <= 0.5\nmse = 0.9\nsamples = 3\nvalue = 8.3"] ;
201 -> 203 ;
204 [label="mse = 0.0\nsamples = 2\nvalue = 9.0"] ;
203 -> 204 ;
205 [label="mse = 0.0\nsamples = 1\nvalue = 7.0"] ;
203 -> 205 ;
206 [label="mse = 0.0\nsamples = 1\nvalue = 5.0"] ;
200 -> 206 ;
207 [label="mse = 0.0\nsamples = 1\nvalue = 4.0"] ;
193 -> 207 ;
208 [label="mse = 0.0\nsamples = 1\nvalue = 1.0"] ;
192 -> 208 ;
209 [label="price <= 2.7\nmse = 1.2\nsamples = 4\nvalue = 2.5"] ;
177 -> 209 ;
210 [label="mse = 0.0\nsamples = 1\nvalue = 4.0"] ;
209 -> 210 ;
211 [label="GENERAL MILLS <= 0.5\nmse = 0.7\nsamples = 3\nvalue = 2.0"] ;
209 -> 211 ;
212 [label="POST <= 0.5\nmse = 0.2\nsamples = 2\nvalue = 2.5"] ;
211 -> 212 ;
213 [label="mse = 0.0\nsamples = 1\nvalue = 3.0"] ;
212 -> 213 ;
214 [label="mse = 0.0\nsamples = 1\nvalue = 2.0"] ;
212 -> 214 ;
215 [label="mse = 0.0\nsamples = 1\nvalue = 1.0"] ;
211 -> 215 ;
216 [label="price <= 2.8\nmse = 59.7\nsamples = 128\nvalue = 9.5"] ;
176 -> 216 ;
217 [label="vol_eq <= 0.7\nmse = 60.7\nsamples = 3\nvalue = 19.2"] ;
216 -> 217 ;
218 [label="mse = 0.0\nsamples = 1\nvalue = 7.0"] ;
217 -> 218 ;
219 [label="OAT AND CORN <= 0.5\nmse = 14.2\nsamples = 2\nvalue = 23.3"] ;
217 -> 219 ;
220 [label="mse = 0.0\nsamples = 1\nvalue = 18.0"] ;
219 -> 220 ;
221 [label="mse = 0.0\nsamples = 1\nvalue = 26.0"] ;
219 -> 221 ;
222 [label="price <= 3.0\nmse = 57.7\nsamples = 125\nvalue = 9.3"] ;
216 -> 222 ;
223 [label="vol_eq <= 0.9\nmse = 47.8\nsamples = 115\nvalue = 9.0"] ;
222 -> 223 ;
224 [label="vol_eq <= 0.8\nmse = 44.5\nsamples = 89\nvalue = 8.2"] ;
223 -> 224 ;
225 [label="vol_eq <= 0.7\nmse = 54.5\nsamples = 55\nvalue = 9.6"] ;
224 -> 225 ;
226 [label="vol_eq <= 0.4\nmse = 62.4\nsamples = 15\nvalue = 6.8"] ;
225 -> 226 ;
227 [label="mse = 0.2\nsamples = 2\nvalue = 1.7"] ;
226 -> 227 ;
228 [label="APPLE CINNAMON <= 0.5\nmse = 67.0\nsamples = 13\nvalue = 7.5"] ;
226 -> 228 ;
229 [label="price <= 2.8\nmse = 74.0\nsamples = 10\nvalue = 8.6"] ;
228 -> 229 ;
230 [label="price <= 2.8\nmse = 0.9\nsamples = 2\nvalue = 3.3"] ;
229 -> 230 ;
231 [label="mse = 0.0\nsamples = 1\nvalue = 2.0"] ;
230 -> 231 ;
232 [label="mse = 0.0\nsamples = 1\nvalue = 4.0"] ;
230 -> 232 ;
233 [label="price <= 2.9\nmse = 82.5\nsamples = 8\nvalue = 9.7"] ;
229 -> 233 ;
234 [label="mse = 0.0\nsamples = 1\nvalue = 14.0"] ;
233 -> 234 ;
235 [label="price <= 2.9\nmse = 87.3\nsamples = 7\nvalue = 9.4"] ;
233 -> 235 ;
236 [label="mse = 0.0\nsamples = 1\nvalue = 5.0"] ;
235 -> 236 ;
237 [label="REGULAR <= 0.5\nmse = 99.1\nsamples = 6\nvalue = 10.2"] ;
235 -> 237 ;
238 [label="WHEAT <= 0.5\nmse = 108.4\nsamples = 5\nvalue = 10.4"] ;
237 -> 238 ;
239 [label="mse = 135.4\nsamples = 4\nvalue = 10.2"] ;
238 -> 239 ;
240 [label="mse = 0.0\nsamples = 1\nvalue = 11.0"] ;
238 -> 240 ;
241 [label="mse = 0.0\nsamples = 1\nvalue = 8.0"] ;
237 -> 241 ;
242 [label="Feature_A <= 0.5\nmse = 12.0\nsamples = 3\nvalue = 3.0"] ;
228 -> 242 ;
243 [label="mse = 0.0\nsamples = 2\nvalue = 1.0"] ;
242 -> 243 ;
244 [label="mse = 0.0\nsamples = 1\nvalue = 9.0"] ;
242 -> 244 ;
245 [label="KELLOGGS <= 0.5\nmse = 47.5\nsamples = 40\nvalue = 10.6"] ;
225 -> 245 ;
246 [label="WHOLE GRAIN WHEAT <= 0.5\nmse = 47.8\nsamples = 36\nvalue = 9.9"] ;
245 -> 246 ;
247 [label="price <= 3.0\nmse = 53.4\nsamples = 23\nvalue = 11.1"] ;
246 -> 247 ;
248 [label="price <= 2.9\nmse = 51.6\nsamples = 22\nvalue = 11.6"] ;
247 -> 248 ;
249 [label="RICE <= 0.5\nmse = 43.8\nsamples = 7\nvalue = 8.5"] ;
248 -> 249 ;
250 [label="FRUIT <= 0.5\nmse = 12.8\nsamples = 6\nvalue = 6.1"] ;
249 -> 250 ;
251 [label="price <= 2.9\nmse = 11.5\nsamples = 5\nvalue = 5.2"] ;
250 -> 251 ;
252 [label="vol_eq <= 0.7\nmse = 0.5\nsamples = 3\nvalue = 6.0"] ;
251 -> 252 ;
253 [label="mse = 0.0\nsamples = 1\nvalue = 5.0"] ;
252 -> 253 ;
254 [label="Feature_B <= 0.5\nmse = 0.2\nsamples = 2\nvalue = 6.3"] ;
252 -> 254 ;
255 [label="mse = 0.0\nsamples = 1\nvalue = 6.0"] ;
254 -> 255 ;
256 [label="mse = 0.0\nsamples = 1\nvalue = 7.0"] ;
254 -> 256 ;
257 [label="mse = 19.4\nsamples = 2\nvalue = 4.6"] ;
251 -> 257 ;
258 [label="mse = 0.0\nsamples = 1\nvalue = 10.0"] ;
250 -> 258 ;
259 [label="mse = 0.0\nsamples = 1\nvalue = 22.0"] ;
249 -> 259 ;
260 [label="COCOA <= 0.5\nmse = 48.2\nsamples = 15\nvalue = 13.2"] ;
248 -> 260 ;
261 [label="price <= 3.0\nmse = 31.6\nsamples = 8\nvalue = 9.9"] ;
260 -> 261 ;
262 [label="mse = 0.0\nsamples = 1\nvalue = 1.0"] ;
261 -> 262 ;
263 [label="WHOLE GRAIN CORN <= 0.5\nmse = 27.5\nsamples = 7\nvalue = 10.5"] ;
261 -> 263 ;
264 [label="mse = 0.0\nsamples = 2\nvalue = 13.0"] ;
263 -> 264 ;
265 [label="mse = 35.8\nsamples = 5\nvalue = 9.4"] ;
263 -> 265 ;
266 [label="price <= 3.0\nmse = 33.7\nsamples = 7\nvalue = 17.9"] ;
260 -> 266 ;
267 [label="mse = 0.0\nsamples = 1\nvalue = 11.0"] ;
266 -> 267 ;
268 [label="price <= 3.0\nmse = 31.6\nsamples = 6\nvalue = 18.7"] ;
266 -> 268 ;
269 [label="mse = 0.0\nsamples = 2\nvalue = 17.0"] ;
268 -> 269 ;
270 [label="Display_2 <= 0.5\nmse = 45.2\nsamples = 4\nvalue = 19.5"] ;
268 -> 270 ;
271 [label="mse = 54.2\nsamples = 3\nvalue = 19.4"] ;
270 -> 271 ;
272 [label="mse = 0.0\nsamples = 1\nvalue = 20.0"] ;
270 -> 272 ;
273 [label="mse = 0.0\nsamples = 1\nvalue = 2.0"] ;
247 -> 273 ;
274 [label="Feature_A <= 0.5\nmse = 26.1\nsamples = 13\nvalue = 7.3"] ;
246 -> 274 ;
275 [label="GRAHAM <= 0.5\nmse = 23.2\nsamples = 10\nvalue = 5.9"] ;
274 -> 275 ;
276 [label="mse = 0.0\nsamples = 1\nvalue = 1.0"] ;
275 -> 276 ;
277 [label="price <= 2.9\nmse = 22.4\nsamples = 9\nvalue = 6.8"] ;
275 -> 277 ;
278 [label="price <= 2.9\nmse = 40.7\nsamples = 3\nvalue = 10.0"] ;
277 -> 278 ;
279 [label="price <= 2.9\nmse = 0.2\nsamples = 2\nvalue = 5.5"] ;
278 -> 279 ;
280 [label="mse = 0.0\nsamples = 1\nvalue = 6.0"] ;
279 -> 280 ;
281 [label="mse = 0.0\nsamples = 1\nvalue = 5.0"] ;
279 -> 281 ;
282 [label="mse = 0.0\nsamples = 1\nvalue = 19.0"] ;
278 -> 282 ;
283 [label="price <= 3.0\nmse = 11.6\nsamples = 6\nvalue = 5.7"] ;
277 -> 283 ;
284 [label="mse = 0.0\nsamples = 1\nvalue = 1.0"] ;
283 -> 284 ;
285 [label="Feature_B <= 0.5\nmse = 9.9\nsamples = 5\nvalue = 6.2"] ;
283 -> 285 ;
286 [label="mse = 11.3\nsamples = 4\nvalue = 6.1"] ;
285 -> 286 ;
287 [label="mse = 0.0\nsamples = 1\nvalue = 7.0"] ;
285 -> 287 ;
288 [label="price <= 2.9\nmse = 5.2\nsamples = 3\nvalue = 12.2"] ;
274 -> 288 ;
289 [label="mse = 0.2\nsamples = 2\nvalue = 14.5"] ;
288 -> 289 ;
290 [label="mse = 0.0\nsamples = 1\nvalue = 10.0"] ;
288 -> 290 ;
291 [label="REGULAR <= 0.5\nmse = 5.4\nsamples = 4\nvalue = 16.6"] ;
245 -> 291 ;
292 [label="RICE AND WHEAT <= 0.5\nmse = 0.6\nsamples = 3\nvalue = 15.7"] ;
291 -> 292 ;
293 [label="mse = 0.0\nsamples = 1\nvalue = 16.0"] ;
292 -> 293 ;
294 [label="price <= 3.0\nmse = 0.9\nsamples = 2\nvalue = 15.3"] ;
292 -> 294 ;
295 [label="mse = 0.0\nsamples = 1\nvalue = 14.0"] ;
294 -> 295 ;
296 [label="mse = 0.0\nsamples = 1\nvalue = 16.0"] ;
294 -> 296 ;
297 [label="mse = 0.0\nsamples = 1\nvalue = 22.0"] ;
291 -> 297 ;
298 [label="WHOLE GRN WHT & BRLY <= 0.5\nmse = 19.0\nsamples = 34\nvalue = 5.9"] ;
224 -> 298 ;
299 [label="REGULAR <= 0.5\nmse = 18.5\nsamples = 33\nvalue = 5.6"] ;
298 -> 299 ;
300 [label="price <= 2.8\nmse = 19.0\nsamples = 28\nvalue = 6.2"] ;
299 -> 300 ;
301 [label="FRUIT <= 0.5\nmse = 52.2\nsamples = 4\nvalue = 11.2"] ;
300 -> 301 ;
302 [label="COCOA <= 0.5\nmse = 8.2\nsamples = 3\nvalue = 7.3"] ;
301 -> 302 ;
303 [label="HONEY <= 0.5\nmse = 2.2\nsamples = 2\nvalue = 5.5"] ;
302 -> 303 ;
304 [label="mse = 0.0\nsamples = 1\nvalue = 4.0"] ;
303 -> 304 ;
305 [label="mse = 0.0\nsamples = 1\nvalue = 7.0"] ;
303 -> 305 ;
306 [label="mse = 0.0\nsamples = 1\nvalue = 11.0"] ;
302 -> 306 ;
307 [label="mse = 0.0\nsamples = 1\nvalue = 23.0"] ;
301 -> 307 ;
308 [label="PEANUT BUTTER <= 0.5\nmse = 12.5\nsamples = 24\nvalue = 5.6"] ;
300 -> 308 ;
309 [label="WHOLE GRAIN CORN <= 0.5\nmse = 10.9\nsamples = 23\nvalue = 5.2"] ;
308 -> 309 ;
310 [label="RICE <= 0.5\nmse = 8.7\nsamples = 18\nvalue = 5.7"] ;
309 -> 310 ;
311 [label="price <= 3.0\nmse = 6.4\nsamples = 7\nvalue = 7.1"] ;
310 -> 311 ;
312 [label="mse = 0.0\nsamples = 1\nvalue = 5.0"] ;
311 -> 312 ;
313 [label="MISSING <= 0.5\nmse = 6.6\nsamples = 6\nvalue = 7.5"] ;
311 -> 313 ;
314 [label="GRANOLA <= 0.5\nmse = 7.6\nsamples = 4\nvalue = 7.1"] ;
313 -> 314 ;
315 [label="mse = 15.2\nsamples = 3\nvalue = 7.2"] ;
314 -> 315 ;
316 [label="mse = 0.0\nsamples = 1\nvalue = 7.0"] ;
314 -> 316 ;
317 [label="mse = 0.0\nsamples = 2\nvalue = 9.0"] ;
313 -> 317 ;
318 [label="FRUIT <= 0.5\nmse = 8.0\nsamples = 11\nvalue = 4.7"] ;
310 -> 318 ;
319 [label="COCOA <= 0.5\nmse = 3.3\nsamples = 7\nvalue = 4.0"] ;
318 -> 319 ;
320 [label="mse = 3.9\nsamples = 4\nvalue = 4.5"] ;
319 -> 320 ;
321 [label="mse = 1.8\nsamples = 3\nvalue = 3.4"] ;
319 -> 321 ;
322 [label="price <= 3.0\nmse = 15.0\nsamples = 4\nvalue = 6.2"] ;
318 -> 322 ;
323 [label="mse = 0.0\nsamples = 1\nvalue = 8.0"] ;
322 -> 323 ;
324 [label="price <= 3.0\nmse = 17.7\nsamples = 3\nvalue = 5.8"] ;
322 -> 324 ;
325 [label="mse = 0.0\nsamples = 1\nvalue = 4.0"] ;
324 -> 325 ;
326 [label="mse = 22.2\nsamples = 2\nvalue = 6.3"] ;
324 -> 326 ;
327 [label="MISSING <= 0.5\nmse = 13.7\nsamples = 5\nvalue = 3.0"] ;
309 -> 327 ;
328 [label="price <= 3.0\nmse = 0.2\nsamples = 2\nvalue = 1.5"] ;
327 -> 328 ;
329 [label="mse = 0.0\nsamples = 1\nvalue = 2.0"] ;
328 -> 329 ;
330 [label="mse = 0.0\nsamples = 1\nvalue = 1.0"] ;
328 -> 330 ;
331 [label="price <= 3.0\nmse = 24.7\nsamples = 3\nvalue = 5.0"] ;
327 -> 331 ;
332 [label="mse = 0.0\nsamples = 1\nvalue = 1.0"] ;
331 -> 332 ;
333 [label="mse = 25.0\nsamples = 2\nvalue = 7.0"] ;
331 -> 333 ;
334 [label="mse = 0.0\nsamples = 1\nvalue = 11.0"] ;
308 -> 334 ;
335 [label="WHOLE GRAIN WHEAT <= 0.5\nmse = 0.6\nsamples = 5\nvalue = 2.0"] ;
299 -> 335 ;
336 [label="mse = 0.0\nsamples = 1\nvalue = 3.0"] ;
335 -> 336 ;
337 [label="price <= 2.9\nmse = 0.5\nsamples = 4\nvalue = 1.8"] ;
335 -> 337 ;
338 [label="mse = 0.0\nsamples = 1\nvalue = 3.0"] ;
337 -> 338 ;
339 [label="mse = 0.2\nsamples = 3\nvalue = 1.6"] ;
337 -> 339 ;
340 [label="mse = 0.0\nsamples = 1\nvalue = 11.0"] ;
298 -> 340 ;
341 [label="price <= 2.8\nmse = 49.5\nsamples = 26\nvalue = 11.7"] ;
223 -> 341 ;
342 [label="price <= 2.8\nmse = 6.6\nsamples = 7\nvalue = 7.5"] ;
341 -> 342 ;
343 [label="HONEY ALMOND <= 0.5\nmse = 4.0\nsamples = 6\nvalue = 8.0"] ;
342 -> 343 ;
344 [label="HONEY <= 0.5\nmse = 1.5\nsamples = 4\nvalue = 7.4"] ;
343 -> 344 ;
345 [label="REGULAR <= 0.5\nmse = 0.6\nsamples = 3\nvalue = 7.0"] ;
344 -> 345 ;
346 [label="OAT AND CORN <= 0.5\nmse = 0.2\nsamples = 2\nvalue = 6.6"] ;
345 -> 346 ;
347 [label="mse = 0.0\nsamples = 1\nvalue = 6.0"] ;
346 -> 347 ;
348 [label="mse = 0.0\nsamples = 1\nvalue = 7.0"] ;
346 -> 348 ;
349 [label="mse = 0.0\nsamples = 1\nvalue = 8.0"] ;
345 -> 349 ;
350 [label="mse = 0.0\nsamples = 1\nvalue = 10.0"] ;
344 -> 350 ;
351 [label="price <= 2.8\nmse = 6.2\nsamples = 2\nvalue = 10.5"] ;
343 -> 351 ;
352 [label="mse = 0.0\nsamples = 1\nvalue = 8.0"] ;
351 -> 352 ;
353 [label="mse = 0.0\nsamples = 1\nvalue = 13.0"] ;
351 -> 353 ;
354 [label="mse = 0.0\nsamples = 1\nvalue = 2.0"] ;
342 -> 354 ;
355 [label="price <= 2.9\nmse = 56.2\nsamples = 19\nvalue = 13.2"] ;
341 -> 355 ;
356 [label="mse = 0.0\nsamples = 1\nvalue = 38.0"] ;
355 -> 356 ;
357 [label="HONEY ALMOND <= 0.5\nmse = 36.3\nsamples = 18\nvalue = 12.4"] ;
355 -> 357 ;
358 [label="3 GRAIN <= 0.5\nmse = 29.3\nsamples = 16\nvalue = 11.5"] ;
357 -> 358 ;
359 [label="price <= 3.0\nmse = 15.9\nsamples = 13\nvalue = 10.0"] ;
358 -> 359 ;
360 [label="price <= 2.9\nmse = 6.6\nsamples = 4\nvalue = 7.5"] ;
359 -> 360 ;
361 [label="HONEY <= 0.5\nmse = 8.2\nsamples = 3\nvalue = 6.8"] ;
360 -> 361 ;
362 [label="mse = 10.9\nsamples = 2\nvalue = 6.7"] ;
361 -> 362 ;
363 [label="mse = 0.0\nsamples = 1\nvalue = 7.0"] ;
361 -> 363 ;
364 [label="mse = 0.0\nsamples = 1\nvalue = 9.0"] ;
360 -> 364 ;
365 [label="CINNAMON <= 0.5\nmse = 16.0\nsamples = 9\nvalue = 11.2"] ;
359 -> 365 ;
366 [label="KELLOGGS <= 0.5\nmse = 14.2\nsamples = 8\nvalue = 10.7"] ;
365 -> 366 ;
367 [label="WHOLE GRAIN CORN <= 0.5\nmse = 14.2\nsamples = 7\nvalue = 11.0"] ;
366 -> 367 ;
368 [label="BERRY <= 0.5\nmse = 14.6\nsamples = 6\nvalue = 11.3"] ;
367 -> 368 ;
369 [label="HONEY ROASTED <= 0.5\nmse = 8.8\nsamples = 4\nvalue = 12.0"] ;
368 -> 369 ;
370 [label="REGULAR <= 0.5\nmse = 13.6\nsamples = 3\nvalue = 12.7"] ;
369 -> 370 ;
371 [label="mse = 0.0\nsamples = 1\nvalue = 13.0"] ;
370 -> 371 ;
372 [label="mse = 20.2\nsamples = 2\nvalue = 12.5"] ;
370 -> 372 ;
373 [label="mse = 0.0\nsamples = 1\nvalue = 11.0"] ;
369 -> 373 ;
374 [label="mse = 19.4\nsamples = 2\nvalue = 10.6"] ;
368 -> 374 ;
375 [label="mse = 0.0\nsamples = 1\nvalue = 8.0"] ;
367 -> 375 ;
376 [label="mse = 0.0\nsamples = 1\nvalue = 7.0"] ;
366 -> 376 ;
377 [label="mse = 0.0\nsamples = 1\nvalue = 17.0"] ;
365 -> 377 ;
378 [label="price <= 3.0\nmse = 43.1\nsamples = 3\nvalue = 15.6"] ;
358 -> 378 ;
379 [label="mse = 0.0\nsamples = 1\nvalue = 23.0"] ;
378 -> 379 ;
380 [label="price <= 3.0\nmse = 3.0\nsamples = 2\nvalue = 10.0"] ;
378 -> 380 ;
381 [label="mse = 0.0\nsamples = 1\nvalue = 13.0"] ;
380 -> 381 ;
382 [label="mse = 0.0\nsamples = 1\nvalue = 9.0"] ;
380 -> 382 ;
383 [label="price <= 3.0\nmse = 32.0\nsamples = 2\nvalue = 20.0"] ;
357 -> 383 ;
384 [label="mse = 0.0\nsamples = 1\nvalue = 12.0"] ;
383 -> 384 ;
385 [label="mse = 0.0\nsamples = 1\nvalue = 24.0"] ;
383 -> 385 ;
386 [label="WHOLE GRAIN WHEAT <= 0.5\nmse = 161.1\nsamples = 10\nvalue = 13.3"] ;
222 -> 386 ;
387 [label="GENERAL MILLS <= 0.5\nmse = 39.4\nsamples = 9\nvalue = 8.8"] ;
386 -> 387 ;
388 [label="vol_eq <= 0.8\nmse = 9.7\nsamples = 6\nvalue = 6.2"] ;
387 -> 388 ;
389 [label="vol_eq <= 0.6\nmse = 2.2\nsamples = 2\nvalue = 2.5"] ;
388 -> 389 ;
390 [label="mse = 0.0\nsamples = 1\nvalue = 1.0"] ;
389 -> 390 ;
391 [label="mse = 0.0\nsamples = 1\nvalue = 4.0"] ;
389 -> 391 ;
392 [label="STRAWBERRY <= 0.5\nmse = 6.8\nsamples = 4\nvalue = 7.3"] ;
388 -> 392 ;
393 [label="KELLOGGS <= 0.5\nmse = 0.2\nsamples = 3\nvalue = 8.3"] ;
392 -> 393 ;
394 [label="mse = 0.0\nsamples = 2\nvalue = 8.0"] ;
393 -> 394 ;
395 [label="mse = 0.0\nsamples = 1\nvalue = 9.0"] ;
393 -> 395 ;
396 [label="mse = 0.0\nsamples = 1\nvalue = 1.0"] ;
392 -> 396 ;
397 [label="vol_eq <= 0.9\nmse = 55.7\nsamples = 3\nvalue = 14.8"] ;
387 -> 397 ;
398 [label="WHOLE GRAIN OT & CRN <= 0.5\nmse = 2.0\nsamples = 2\nvalue = 19.0"] ;
397 -> 398 ;
399 [label="mse = 0.0\nsamples = 1\nvalue = 21.0"] ;
398 -> 399 ;
400 [label="mse = 0.0\nsamples = 1\nvalue = 18.0"] ;
398 -> 400 ;
401 [label="mse = 0.0\nsamples = 1\nvalue = 2.0"] ;
397 -> 401 ;
402 [label="mse = 0.0\nsamples = 1\nvalue = 42.0"] ;
386 -> 402 ;
403 [label="Feature_A <= 0.5\nmse = 33.9\nsamples = 126\nvalue = 7.0"] ;
175 -> 403 ;
404 [label="RICE AND WHEAT <= 0.5\nmse = 32.2\nsamples = 124\nvalue = 6.8"] ;
403 -> 404 ;
405 [label="price <= 3.3\nmse = 28.2\nsamples = 111\nvalue = 6.4"] ;
404 -> 405 ;
406 [label="price <= 3.2\nmse = 23.8\nsamples = 103\nvalue = 6.0"] ;
405 -> 406 ;
407 [label="price <= 3.2\nmse = 24.3\nsamples = 71\nvalue = 6.6"] ;
406 -> 407 ;
408 [label="CORN AND RICE <= 0.5\nmse = 20.2\nsamples = 69\nvalue = 6.3"] ;
407 -> 408 ;
409 [label="WHOLE WHEAT AND RICE <= 0.5\nmse = 15.5\nsamples = 65\nvalue = 6.0"] ;
408 -> 409 ;
410 [label="HONEY ROASTED <= 0.5\nmse = 15.5\nsamples = 60\nvalue = 5.7"] ;
409 -> 410 ;
411 [label="price <= 3.1\nmse = 15.0\nsamples = 59\nvalue = 5.6"] ;
410 -> 411 ;
412 [label="GRAHAM <= 0.5\nmse = 3.0\nsamples = 7\nvalue = 2.6"] ;
411 -> 412 ;
413 [label="vol_eq <= 0.9\nmse = 1.9\nsamples = 5\nvalue = 1.9"] ;
412 -> 413 ;
414 [label="MISSING <= 0.5\nmse = 0.1\nsamples = 3\nvalue = 1.2"] ;
413 -> 414 ;
415 [label="mse = 0.0\nsamples = 2\nvalue = 1.0"] ;
414 -> 415 ;
416 [label="mse = 0.0\nsamples = 1\nvalue = 2.0"] ;
414 -> 416 ;
417 [label="HONEY <= 0.5\nmse = 1.0\nsamples = 2\nvalue = 4.0"] ;
413 -> 417 ;
418 [label="mse = 0.0\nsamples = 1\nvalue = 5.0"] ;
417 -> 418 ;
419 [label="mse = 0.0\nsamples = 1\nvalue = 3.0"] ;
417 -> 419 ;
420 [label="price <= 3.0\nmse = 0.2\nsamples = 2\nvalue = 4.7"] ;
412 -> 420 ;
421 [label="mse = 0.0\nsamples = 1\nvalue = 5.0"] ;
420 -> 421 ;
422 [label="mse = 0.0\nsamples = 1\nvalue = 4.0"] ;
420 -> 422 ;
423 [label="HONEY <= 0.5\nmse = 15.4\nsamples = 52\nvalue = 5.9"] ;
411 -> 423 ;
424 [label="PEANUT BUTTER <= 0.5\nmse = 13.4\nsamples = 47\nvalue = 5.5"] ;
423 -> 424 ;
425 [label="CHOCOLATE <= 0.5\nmse = 13.3\nsamples = 45\nvalue = 5.6"] ;
424 -> 425 ;
426 [label="Feature_NONE <= 0.5\nmse = 14.1\nsamples = 39\nvalue = 5.9"] ;
425 -> 426 ;
427 [label="mse = 0.0\nsamples = 1\nvalue = 13.0"] ;
426 -> 427 ;
428 [label="OAT AND CORN <= 0.5\nmse = 13.6\nsamples = 38\nvalue = 5.8"] ;
426 -> 428 ;
429 [label="price <= 3.2\nmse = 13.2\nsamples = 37\nvalue = 5.7"] ;
428 -> 429 ;
430 [label="vol_eq <= 0.8\nmse = 16.4\nsamples = 12\nvalue = 6.8"] ;
429 -> 430 ;
431 [label="price <= 3.1\nmse = 12.1\nsamples = 11\nvalue = 6.2"] ;
430 -> 431 ;
432 [label="RICE <= 0.5\nmse = 11.6\nsamples = 7\nvalue = 5.4"] ;
431 -> 432 ;
433 [label="REGULAR <= 0.5\nmse = 1.8\nsamples = 3\nvalue = 3.4"] ;
432 -> 433 ;
434 [label="MISSING <= 0.5\nmse = 0.2\nsamples = 2\nvalue = 2.3"] ;
433 -> 434 ;
435 [label="mse = 0.0\nsamples = 1\nvalue = 3.0"] ;
434 -> 435 ;
436 [label="mse = 0.0\nsamples = 1\nvalue = 2.0"] ;
434 -> 436 ;
437 [label="mse = 0.0\nsamples = 1\nvalue = 5.0"] ;
433 -> 437 ;
438 [label="MISSING <= 0.5\nmse = 13.6\nsamples = 4\nvalue = 6.9"] ;
432 -> 438 ;
439 [label="POST <= 0.5\nmse = 5.9\nsamples = 3\nvalue = 5.7"] ;
438 -> 439 ;
440 [label="mse = 6.8\nsamples = 2\nvalue = 6.5"] ;
439 -> 440 ;
441 [label="mse = 0.0\nsamples = 1\nvalue = 4.0"] ;
439 -> 441 ;
442 [label="mse = 0.0\nsamples = 1\nvalue = 14.0"] ;
438 -> 442 ;
443 [label="GENERAL MILLS <= 0.5\nmse = 7.8\nsamples = 4\nvalue = 8.2"] ;
431 -> 443 ;
444 [label="mse = 0.0\nsamples = 1\nvalue = 5.0"] ;
443 -> 444 ;
445 [label="COCOA <= 0.5\nmse = 1.6\nsamples = 3\nvalue = 10.3"] ;
443 -> 445 ;
446 [label="vol_eq <= 0.6\nmse = 0.2\nsamples = 2\nvalue = 9.5"] ;
445 -> 446 ;
447 [label="mse = 0.0\nsamples = 1\nvalue = 10.0"] ;
446 -> 447 ;
448 [label="mse = 0.0\nsamples = 1\nvalue = 9.0"] ;
446 -> 448 ;
449 [label="mse = 0.0\nsamples = 1\nvalue = 12.0"] ;
445 -> 449 ;
450 [label="mse = 0.0\nsamples = 1\nvalue = 16.0"] ;
430 -> 450 ;
451 [label="COCOA <= 0.5\nmse = 11.4\nsamples = 25\nvalue = 5.3"] ;
429 -> 451 ;
452 [label="WHOLE GRAIN WHEAT <= 0.5\nmse = 10.8\nsamples = 24\nvalue = 5.6"] ;
451 -> 452 ;
453 [label="REGULAR <= 0.5\nmse = 10.9\nsamples = 18\nvalue = 6.3"] ;
452 -> 453 ;
454 [label="QUAKER <= 0.5\nmse = 12.9\nsamples = 13\nvalue = 6.8"] ;
453 -> 454 ;
455 [label="vol_eq <= 0.7\nmse = 12.6\nsamples = 11\nvalue = 7.2"] ;
454 -> 455 ;
456 [label="WHOLE GRAIN CORN <= 0.5\nmse = 0.5\nsamples = 3\nvalue = 5.0"] ;
455 -> 456 ;
457 [label="mse = 0.2\nsamples = 2\nvalue = 5.3"] ;
456 -> 457 ;
458 [label="mse = 0.0\nsamples = 1\nvalue = 4.0"] ;
456 -> 458 ;
459 [label="vol_eq <= 0.8\nmse = 14.0\nsamples = 8\nvalue = 7.7"] ;
455 -> 459 ;
460 [label="mse = 0.0\nsamples = 2\nvalue = 7.0"] ;
459 -> 460 ;
461 [label="KELLOGGS <= 0.5\nmse = 22.4\nsamples = 6\nvalue = 8.1"] ;
459 -> 461 ;
462 [label="WHOLE GRAIN CORN <= 0.5\nmse = 24.6\nsamples = 5\nvalue = 8.0"] ;
461 -> 462 ;
463 [label="mse = 0.0\nsamples = 1\nvalue = 8.0"] ;
462 -> 463 ;
464 [label="mse = 27.3\nsamples = 4\nvalue = 8.0"] ;
462 -> 464 ;
465 [label="mse = 0.0\nsamples = 1\nvalue = 9.0"] ;
461 -> 465 ;
466 [label="mse = 0.0\nsamples = 2\nvalue = 3.0"] ;
454 -> 466 ;
467 [label="QUAKER <= 0.5\nmse = 1.9\nsamples = 5\nvalue = 4.9"] ;
453 -> 467 ;
468 [label="vol_eq <= 0.6\nmse = 1.9\nsamples = 4\nvalue = 4.5"] ;
467 -> 468 ;
469 [label="mse = 1.0\nsamples = 2\nvalue = 5.0"] ;
468 -> 469 ;
470 [label="WHOLE GRAIN CORN <= 0.5\nmse = 2.2\nsamples = 2\nvalue = 3.5"] ;
468 -> 470 ;
471 [label="mse = 0.0\nsamples = 1\nvalue = 5.0"] ;
470 -> 471 ;
472 [label="mse = 0.0\nsamples = 1\nvalue = 2.0"] ;
470 -> 472 ;
473 [label="mse = 0.0\nsamples = 1\nvalue = 6.0"] ;
467 -> 473 ;
474 [label="mse = 5.9\nsamples = 6\nvalue = 3.8"] ;
452 -> 474 ;
475 [label="mse = 0.0\nsamples = 1\nvalue = 1.0"] ;
451 -> 475 ;
476 [label="mse = 0.0\nsamples = 1\nvalue = 12.0"] ;
428 -> 476 ;
477 [label="CORN WHEAT & OAT <= 0.5\nmse = 3.6\nsamples = 6\nvalue = 3.7"] ;
425 -> 477 ;
478 [label="Feature_NONE <= 0.5\nmse = 1.1\nsamples = 5\nvalue = 2.9"] ;
477 -> 478 ;
479 [label="mse = 0.0\nsamples = 1\nvalue = 5.0"] ;
478 -> 479 ;
480 [label="price <= 3.2\nmse = 0.5\nsamples = 4\nvalue = 2.6"] ;
478 -> 480 ;
481 [label="mse = 0.0\nsamples = 1\nvalue = 1.0"] ;
480 -> 481 ;
482 [label="mse = 0.1\nsamples = 3\nvalue = 2.8"] ;
480 -> 482 ;
483 [label="mse = 0.0\nsamples = 1\nvalue = 7.0"] ;
477 -> 483 ;
484 [label="mse = 0.2\nsamples = 2\nvalue = 1.7"] ;
424 -> 484 ;
485 [label="price <= 3.2\nmse = 16.9\nsamples = 5\nvalue = 9.7"] ;
423 -> 485 ;
486 [label="price <= 3.1\nmse = 20.0\nsamples = 3\nvalue = 11.0"] ;
485 -> 486 ;
487 [label="mse = 0.0\nsamples = 1\nvalue = 13.0"] ;
486 -> 487 ;
488 [label="mse = 23.0\nsamples = 2\nvalue = 10.6"] ;
486 -> 488 ;
489 [label="mse = 0.0\nsamples = 2\nvalue = 7.0"] ;
485 -> 489 ;
490 [label="mse = 0.0\nsamples = 1\nvalue = 12.0"] ;
410 -> 490 ;
491 [label="Feature_A+ <= 0.5\nmse = 5.7\nsamples = 5\nvalue = 8.9"] ;
409 -> 491 ;
492 [label="mse = 5.3\nsamples = 4\nvalue = 9.2"] ;
491 -> 492 ;
493 [label="mse = 0.0\nsamples = 1\nvalue = 6.0"] ;
491 -> 493 ;
494 [label="price <= 3.2\nmse = 77.2\nsamples = 4\nvalue = 14.8"] ;
408 -> 494 ;
495 [label="price <= 3.1\nmse = 36.2\nsamples = 3\nvalue = 10.7"] ;
494 -> 495 ;
496 [label="mse = 0.0\nsamples = 1\nvalue = 5.0"] ;
495 -> 496 ;
497 [label="price <= 3.2\nmse = 30.2\nsamples = 2\nvalue = 13.5"] ;
495 -> 497 ;
498 [label="mse = 0.0\nsamples = 1\nvalue = 19.0"] ;
497 -> 498 ;
499 [label="mse = 0.0\nsamples = 1\nvalue = 8.0"] ;
497 -> 499 ;
500 [label="mse = 0.0\nsamples = 1\nvalue = 27.0"] ;
494 -> 500 ;
501 [label="WHOLE GRAIN WHEAT <= 0.5\nmse = 64.2\nsamples = 2\nvalue = 17.3"] ;
407 -> 501 ;
502 [label="mse = 0.0\nsamples = 1\nvalue = 6.0"] ;
501 -> 502 ;
503 [label="mse = 0.0\nsamples = 1\nvalue = 23.0"] ;
501 -> 503 ;
504 [label="HONEY ALMOND <= 0.5\nmse = 19.7\nsamples = 32\nvalue = 4.6"] ;
406 -> 504 ;
505 [label="WHOLE GRAIN OAT <= 0.5\nmse = 14.5\nsamples = 31\nvalue = 4.0"] ;
504 -> 505 ;
506 [label="WHOLE GRAIN CORN <= 0.5\nmse = 11.0\nsamples = 28\nvalue = 3.6"] ;
505 -> 506 ;
507 [label="GRAHAM <= 0.5\nmse = 10.0\nsamples = 27\nvalue = 3.4"] ;
506 -> 507 ;
508 [label="vol_eq <= 0.8\nmse = 9.0\nsamples = 24\nvalue = 3.0"] ;
507 -> 508 ;
509 [label="vol_eq <= 0.8\nmse = 5.0\nsamples = 16\nvalue = 2.6"] ;
508 -> 509 ;
510 [label="WHEAT <= 0.5\nmse = 6.4\nsamples = 10\nvalue = 3.1"] ;
509 -> 510 ;
511 [label="vol_eq <= 0.5\nmse = 4.6\nsamples = 6\nvalue = 2.7"] ;
510 -> 511 ;
512 [label="mse = 0.0\nsamples = 1\nvalue = 1.0"] ;
511 -> 512 ;
513 [label="price <= 3.3\nmse = 4.7\nsamples = 5\nvalue = 2.8"] ;
511 -> 513 ;
514 [label="vol_eq <= 0.7\nmse = 1.0\nsamples = 2\nvalue = 2.2"] ;
513 -> 514 ;
515 [label="mse = 0.0\nsamples = 1\nvalue = 1.0"] ;
514 -> 515 ;
516 [label="mse = 0.0\nsamples = 1\nvalue = 3.0"] ;
514 -> 516 ;
517 [label="FRUIT <= 0.5\nmse = 7.2\nsamples = 3\nvalue = 3.3"] ;
513 -> 517 ;
518 [label="mse = 8.6\nsamples = 2\nvalue = 3.4"] ;
517 -> 518 ;
519 [label="mse = 0.0\nsamples = 1\nvalue = 3.0"] ;
517 -> 519 ;
520 [label="price <= 3.3\nmse = 9.6\nsamples = 4\nvalue = 4.0"] ;
510 -> 520 ;
521 [label="mse = 0.0\nsamples = 1\nvalue = 10.0"] ;
520 -> 521 ;
522 [label="FRUIT <= 0.5\nmse = 0.8\nsamples = 3\nvalue = 2.5"] ;
520 -> 522 ;
523 [label="mse = 0.0\nsamples = 1\nvalue = 3.0"] ;
522 -> 523 ;
524 [label="mse = 0.9\nsamples = 2\nvalue = 2.3"] ;
522 -> 524 ;
525 [label="price <= 3.3\nmse = 0.5\nsamples = 6\nvalue = 1.5"] ;
509 -> 525 ;
526 [label="RICE <= 0.5\nmse = 0.2\nsamples = 3\nvalue = 2.3"] ;
525 -> 526 ;
527 [label="mse = 0.0\nsamples = 2\nvalue = 2.0"] ;
526 -> 527 ;
528 [label="mse = 0.0\nsamples = 1\nvalue = 3.0"] ;
526 -> 528 ;
529 [label="mse = 0.0\nsamples = 3\nvalue = 1.0"] ;
525 -> 529 ;
530 [label="price <= 3.3\nmse = 17.3\nsamples = 8\nvalue = 4.1"] ;
508 -> 530 ;
531 [label="vol_eq <= 0.9\nmse = 0.9\nsamples = 2\nvalue = 2.3"] ;
530 -> 531 ;
532 [label="mse = 0.0\nsamples = 1\nvalue = 1.0"] ;
531 -> 532 ;
533 [label="mse = 0.0\nsamples = 1\nvalue = 3.0"] ;
531 -> 533 ;
534 [label="vol_eq <= 0.9\nmse = 22.4\nsamples = 6\nvalue = 4.9"] ;
530 -> 534 ;
535 [label="MISSING <= 0.5\nmse = 33.0\nsamples = 3\nvalue = 6.0"] ;
534 -> 535 ;
536 [label="mse = 0.0\nsamples = 1\nvalue = 7.0"] ;
535 -> 536 ;
537 [label="mse = 43.6\nsamples = 2\nvalue = 5.7"] ;
535 -> 537 ;
538 [label="price <= 3.3\nmse = 4.2\nsamples = 3\nvalue = 3.3"] ;
534 -> 538 ;
539 [label="mse = 0.0\nsamples = 1\nvalue = 6.0"] ;
538 -> 539 ;
540 [label="KELLOGGS <= 0.5\nmse = 1.0\nsamples = 2\nvalue = 2.0"] ;
538 -> 540 ;
541 [label="mse = 0.0\nsamples = 1\nvalue = 1.0"] ;
540 -> 541 ;
542 [label="mse = 0.0\nsamples = 1\nvalue = 3.0"] ;
540 -> 542 ;
543 [label="mse = 1.6\nsamples = 3\nvalue = 7.7"] ;
507 -> 543 ;
544 [label="mse = 0.0\nsamples = 1\nvalue = 9.0"] ;
506 -> 544 ;
545 [label="price <= 3.3\nmse = 31.0\nsamples = 3\nvalue = 7.2"] ;
505 -> 545 ;
546 [label="mse = 0.0\nsamples = 1\nvalue = 3.0"] ;
545 -> 546 ;
547 [label="price <= 3.3\nmse = 32.0\nsamples = 2\nvalue = 10.0"] ;
545 -> 547 ;
548 [label="mse = 0.0\nsamples = 1\nvalue = 14.0"] ;
547 -> 548 ;
549 [label="mse = 0.0\nsamples = 1\nvalue = 2.0"] ;
547 -> 549 ;
550 [label="mse = 0.0\nsamples = 1\nvalue = 16.0"] ;
504 -> 550 ;
551 [label="MISSING <= 0.5\nmse = 52.9\nsamples = 8\nvalue = 11.8"] ;
405 -> 551 ;
552 [label="price <= 3.3\nmse = 14.0\nsamples = 5\nvalue = 8.4"] ;
551 -> 552 ;
553 [label="mse = 0.2\nsamples = 2\nvalue = 3.5"] ;
552 -> 553 ;
554 [label="FRUIT <= 0.5\nmse = 8.0\nsamples = 3\nvalue = 10.0"] ;
552 -> 554 ;
555 [label="mse = 0.0\nsamples = 2\nvalue = 12.0"] ;
554 -> 555 ;
556 [label="mse = 0.0\nsamples = 1\nvalue = 6.0"] ;
554 -> 556 ;
557 [label="price <= 3.3\nmse = 67.4\nsamples = 3\nvalue = 17.2"] ;
551 -> 557 ;
558 [label="WHOLE GRAIN CORN <= 0.5\nmse = 54.2\nsamples = 2\nvalue = 14.8"] ;
557 -> 558 ;
559 [label="mse = 0.0\nsamples = 1\nvalue = 19.0"] ;
558 -> 559 ;
560 [label="mse = 0.0\nsamples = 1\nvalue = 2.0"] ;
558 -> 560 ;
561 [label="mse = 0.0\nsamples = 1\nvalue = 27.0"] ;
557 -> 561 ;
562 [label="price <= 3.3\nmse = 54.2\nsamples = 13\nvalue = 10.6"] ;
404 -> 562 ;
563 [label="price <= 3.2\nmse = 48.6\nsamples = 12\nvalue = 11.7"] ;
562 -> 563 ;
564 [label="price <= 3.1\nmse = 13.1\nsamples = 7\nvalue = 9.9"] ;
563 -> 564 ;
565 [label="mse = 1.0\nsamples = 2\nvalue = 12.0"] ;
564 -> 565 ;
566 [label="price <= 3.2\nmse = 15.1\nsamples = 5\nvalue = 9.2"] ;
564 -> 566 ;
567 [label="mse = 0.0\nsamples = 1\nvalue = 7.0"] ;
566 -> 567 ;
568 [label="REGULAR <= 0.5\nmse = 19.2\nsamples = 4\nvalue = 10.2"] ;
566 -> 568 ;
569 [label="mse = 0.0\nsamples = 1\nvalue = 9.0"] ;
568 -> 569 ;
570 [label="mse = 24.9\nsamples = 3\nvalue = 10.7"] ;
568 -> 570 ;
571 [label="price <= 3.3\nmse = 74.4\nsamples = 5\nvalue = 13.3"] ;
563 -> 571 ;
572 [label="mse = 0.0\nsamples = 1\nvalue = 30.0"] ;
571 -> 572 ;
573 [label="vol_eq <= 0.8\nmse = 44.7\nsamples = 4\nvalue = 11.2"] ;
571 -> 573 ;
574 [label="mse = 0.0\nsamples = 1\nvalue = 7.0"] ;
573 -> 574 ;
575 [label="CINNAMON PECAN <= 0.5\nmse = 51.6\nsamples = 3\nvalue = 12.7"] ;
573 -> 575 ;
576 [label="mse = 0.0\nsamples = 1\nvalue = 14.0"] ;
575 -> 576 ;
577 [label="mse = 61.4\nsamples = 2\nvalue = 12.4"] ;
575 -> 577 ;
578 [label="mse = 0.0\nsamples = 1\nvalue = 1.0"] ;
562 -> 578 ;
579 [label="WHEAT <= 0.5\nmse = 2.0\nsamples = 2\nvalue = 19.0"] ;
403 -> 579 ;
580 [label="mse = 0.0\nsamples = 1\nvalue = 18.0"] ;
579 -> 580 ;
581 [label="mse = 0.0\nsamples = 1\nvalue = 21.0"] ;
579 -> 581 ;
582 [label="price <= 2.9\nmse = 124.9\nsamples = 8\nvalue = 15.8"] ;
174 -> 582 ;
583 [label="mse = 180.2\nsamples = 2\nvalue = 27.2"] ;
582 -> 583 ;
584 [label="price <= 3.1\nmse = 15.8\nsamples = 6\nvalue = 10.7"] ;
582 -> 584 ;
585 [label="price <= 3.0\nmse = 0.2\nsamples = 2\nvalue = 6.5"] ;
584 -> 585 ;
586 [label="mse = 0.0\nsamples = 1\nvalue = 7.0"] ;
585 -> 586 ;
587 [label="mse = 0.0\nsamples = 1\nvalue = 6.0"] ;
585 -> 587 ;
588 [label="price <= 3.2\nmse = 13.8\nsamples = 4\nvalue = 11.9"] ;
584 -> 588 ;
589 [label="price <= 3.1\nmse = 2.0\nsamples = 2\nvalue = 16.0"] ;
588 -> 589 ;
590 [label="mse = 0.0\nsamples = 1\nvalue = 17.0"] ;
589 -> 590 ;
591 [label="mse = 0.0\nsamples = 1\nvalue = 14.0"] ;
589 -> 591 ;
592 [label="price <= 3.3\nmse = 0.2\nsamples = 2\nvalue = 8.8"] ;
588 -> 592 ;
593 [label="mse = 0.0\nsamples = 1\nvalue = 8.0"] ;
592 -> 593 ;
594 [label="mse = 0.0\nsamples = 1\nvalue = 9.0"] ;
592 -> 594 ;
595 [label="KELLOGGS <= 0.5\nmse = 127.5\nsamples = 30\nvalue = 12.5"] ;
173 -> 595 ;
596 [label="price <= 3.2\nmse = 123.4\nsamples = 14\nvalue = 21.0"] ;
595 -> 596 ;
597 [label="price <= 3.2\nmse = 93.7\nsamples = 11\nvalue = 23.6"] ;
596 -> 597 ;
598 [label="price <= 3.1\nmse = 46.9\nsamples = 10\nvalue = 21.1"] ;
597 -> 598 ;
599 [label="vol_eq <= 0.6\nmse = 47.6\nsamples = 9\nvalue = 21.9"] ;
598 -> 599 ;
600 [label="price <= 3.0\nmse = 121.0\nsamples = 2\nvalue = 16.0"] ;
599 -> 600 ;
601 [label="mse = 0.0\nsamples = 1\nvalue = 5.0"] ;
600 -> 601 ;
602 [label="mse = 0.0\nsamples = 1\nvalue = 27.0"] ;
600 -> 602 ;
603 [label="price <= 3.0\nmse = 28.6\nsamples = 7\nvalue = 22.9"] ;
599 -> 603 ;
604 [label="POST <= 0.5\nmse = 33.9\nsamples = 6\nvalue = 21.9"] ;
603 -> 604 ;
605 [label="mse = 88.9\nsamples = 2\nvalue = 20.3"] ;
604 -> 605 ;
606 [label="price <= 3.0\nmse = 4.6\nsamples = 4\nvalue = 22.7"] ;
604 -> 606 ;
607 [label="price <= 2.9\nmse = 1.5\nsamples = 3\nvalue = 24.0"] ;
606 -> 607 ;
608 [label="mse = 0.0\nsamples = 1\nvalue = 24.0"] ;
607 -> 608 ;
609 [label="mse = 2.0\nsamples = 2\nvalue = 24.0"] ;
607 -> 609 ;
610 [label="mse = 0.0\nsamples = 1\nvalue = 20.0"] ;
606 -> 610 ;
611 [label="mse = 0.0\nsamples = 1\nvalue = 26.0"] ;
603 -> 611 ;
612 [label="mse = 0.0\nsamples = 1\nvalue = 15.0"] ;
598 -> 612 ;
613 [label="mse = 0.0\nsamples = 1\nvalue = 44.0"] ;
597 -> 613 ;
614 [label="GENERAL MILLS <= 0.5\nmse = 4.7\nsamples = 3\nvalue = 5.0"] ;
596 -> 614 ;
615 [label="price <= 3.3\nmse = 0.2\nsamples = 2\nvalue = 3.5"] ;
614 -> 615 ;
616 [label="mse = 0.0\nsamples = 1\nvalue = 3.0"] ;
615 -> 616 ;
617 [label="mse = 0.0\nsamples = 1\nvalue = 4.0"] ;
615 -> 617 ;
618 [label="mse = 0.0\nsamples = 1\nvalue = 8.0"] ;
614 -> 618 ;
619 [label="price <= 3.0\nmse = 19.3\nsamples = 16\nvalue = 5.3"] ;
595 -> 619 ;
620 [label="price <= 2.8\nmse = 19.6\nsamples = 4\nvalue = 11.5"] ;
619 -> 620 ;
621 [label="mse = 22.2\nsamples = 2\nvalue = 8.7"] ;
620 -> 621 ;
622 [label="price <= 2.9\nmse = 0.9\nsamples = 2\nvalue = 14.3"] ;
620 -> 622 ;
623 [label="mse = 0.0\nsamples = 1\nvalue = 15.0"] ;
622 -> 623 ;
624 [label="mse = 0.0\nsamples = 1\nvalue = 13.0"] ;
622 -> 624 ;
625 [label="price <= 3.3\nmse = 3.4\nsamples = 12\nvalue = 3.4"] ;
619 -> 625 ;
626 [label="Feature_A <= 0.5\nmse = 2.9\nsamples = 6\nvalue = 2.4"] ;
625 -> 626 ;
627 [label="price <= 3.2\nmse = 0.4\nsamples = 5\nvalue = 1.9"] ;
626 -> 627 ;
628 [label="price <= 3.1\nmse = 0.2\nsamples = 4\nvalue = 1.7"] ;
627 -> 628 ;
629 [label="mse = 0.0\nsamples = 2\nvalue = 2.0"] ;
628 -> 629 ;
630 [label="vol_eq <= 0.6\nmse = 0.2\nsamples = 2\nvalue = 1.3"] ;
628 -> 630 ;
631 [label="mse = 0.0\nsamples = 1\nvalue = 2.0"] ;
630 -> 631 ;
632 [label="mse = 0.0\nsamples = 1\nvalue = 1.0"] ;
630 -> 632 ;
633 [label="mse = 0.0\nsamples = 1\nvalue = 3.0"] ;
627 -> 633 ;
634 [label="mse = 0.0\nsamples = 1\nvalue = 7.0"] ;
626 -> 634 ;
635 [label="vol_eq <= 0.9\nmse = 2.4\nsamples = 6\nvalue = 4.2"] ;
625 -> 635 ;
636 [label="vol_eq <= 0.7\nmse = 0.2\nsamples = 3\nvalue = 5.3"] ;
635 -> 636 ;
637 [label="mse = 0.0\nsamples = 2\nvalue = 5.0"] ;
636 -> 637 ;
638 [label="mse = 0.0\nsamples = 1\nvalue = 6.0"] ;
636 -> 638 ;
639 [label="price <= 3.4\nmse = 0.8\nsamples = 3\nvalue = 2.5"] ;
635 -> 639 ;
640 [label="mse = 0.0\nsamples = 1\nvalue = 1.0"] ;
639 -> 640 ;
641 [label="mse = 0.0\nsamples = 2\nvalue = 3.0"] ;
639 -> 641 ;
642 [label="Display_1 <= 0.5\nmse = 122.0\nsamples = 42\nvalue = 12.9"] ;
172 -> 642 ;
643 [label="vol_eq <= 0.9\nmse = 114.2\nsamples = 41\nvalue = 12.5"] ;
642 -> 643 ;
644 [label="vol_eq <= 0.8\nmse = 116.7\nsamples = 35\nvalue = 13.6"] ;
643 -> 644 ;
645 [label="price <= 2.7\nmse = 105.9\nsamples = 24\nvalue = 11.5"] ;
644 -> 645 ;
646 [label="price <= 2.6\nmse = 125.0\nsamples = 3\nvalue = 18.0"] ;
645 -> 646 ;
647 [label="mse = 0.0\nsamples = 1\nvalue = 7.0"] ;
646 -> 647 ;
648 [label="price <= 2.7\nmse = 8.0\nsamples = 2\nvalue = 29.0"] ;
646 -> 648 ;
649 [label="mse = 0.0\nsamples = 1\nvalue = 31.0"] ;
648 -> 649 ;
650 [label="mse = 0.0\nsamples = 1\nvalue = 25.0"] ;
648 -> 650 ;
651 [label="price <= 2.9\nmse = 93.4\nsamples = 21\nvalue = 10.3"] ;
645 -> 651 ;
652 [label="Feature_A <= 0.5\nmse = 12.2\nsamples = 6\nvalue = 5.6"] ;
651 -> 652 ;
653 [label="price <= 2.8\nmse = 9.5\nsamples = 5\nvalue = 3.8"] ;
652 -> 653 ;
654 [label="mse = 0.0\nsamples = 1\nvalue = 1.0"] ;
653 -> 654 ;
655 [label="price <= 2.8\nmse = 8.2\nsamples = 4\nvalue = 5.2"] ;
653 -> 655 ;
656 [label="mse = 0.0\nsamples = 1\nvalue = 6.0"] ;
655 -> 656 ;
657 [label="price <= 2.9\nmse = 10.7\nsamples = 3\nvalue = 5.0"] ;
655 -> 657 ;
658 [label="mse = 16.0\nsamples = 2\nvalue = 5.0"] ;
657 -> 658 ;
659 [label="mse = 0.0\nsamples = 1\nvalue = 5.0"] ;
657 -> 659 ;
660 [label="mse = 0.0\nsamples = 1\nvalue = 9.0"] ;
652 -> 660 ;
661 [label="vol_eq <= 0.7\nmse = 112.0\nsamples = 15\nvalue = 12.1"] ;
651 -> 661 ;
662 [label="price <= 3.1\nmse = 0.2\nsamples = 3\nvalue = 3.8"] ;
661 -> 662 ;
663 [label="mse = 0.0\nsamples = 1\nvalue = 3.0"] ;
662 -> 663 ;
664 [label="mse = 0.0\nsamples = 2\nvalue = 4.0"] ;
662 -> 664 ;
665 [label="price <= 3.1\nmse = 117.6\nsamples = 12\nvalue = 13.8"] ;
661 -> 665 ;
666 [label="price <= 3.0\nmse = 150.9\nsamples = 7\nvalue = 16.2"] ;
665 -> 666 ;
667 [label="mse = 160.0\nsamples = 6\nvalue = 15.6"] ;
666 -> 667 ;
668 [label="mse = 0.0\nsamples = 1\nvalue = 23.0"] ;
666 -> 668 ;
669 [label="price <= 3.3\nmse = 45.1\nsamples = 5\nvalue = 10.1"] ;
665 -> 669 ;
670 [label="price <= 3.2\nmse = 12.6\nsamples = 4\nvalue = 5.4"] ;
669 -> 670 ;
671 [label="price <= 3.2\nmse = 8.2\nsamples = 3\nvalue = 7.7"] ;
670 -> 671 ;
672 [label="mse = 0.0\nsamples = 1\nvalue = 4.0"] ;
671 -> 672 ;
673 [label="vol_eq <= 0.8\nmse = 2.2\nsamples = 2\nvalue = 9.5"] ;
671 -> 673 ;
674 [label="mse = 0.0\nsamples = 1\nvalue = 8.0"] ;
673 -> 674 ;
675 [label="mse = 0.0\nsamples = 1\nvalue = 11.0"] ;
673 -> 675 ;
676 [label="mse = 0.0\nsamples = 1\nvalue = 2.0"] ;
670 -> 676 ;
677 [label="mse = 0.0\nsamples = 1\nvalue = 18.0"] ;
669 -> 677 ;
678 [label="price <= 3.0\nmse = 113.7\nsamples = 11\nvalue = 17.6"] ;
644 -> 678 ;
679 [label="price <= 2.8\nmse = 151.2\nsamples = 5\nvalue = 20.5"] ;
678 -> 679 ;
680 [label="price <= 2.7\nmse = 25.4\nsamples = 4\nvalue = 15.4"] ;
679 -> 680 ;
681 [label="mse = 24.7\nsamples = 3\nvalue = 16.0"] ;
680 -> 681 ;
682 [label="mse = 0.0\nsamples = 1\nvalue = 10.0"] ;
680 -> 682 ;
683 [label="mse = 0.0\nsamples = 1\nvalue = 46.0"] ;
679 -> 683 ;
684 [label="price <= 3.1\nmse = 24.9\nsamples = 6\nvalue = 13.1"] ;
678 -> 684 ;
685 [label="mse = 2.2\nsamples = 2\nvalue = 7.5"] ;
684 -> 685 ;
686 [label="price <= 3.3\nmse = 18.3\nsamples = 4\nvalue = 15.0"] ;
684 -> 686 ;
687 [label="price <= 3.3\nmse = 13.4\nsamples = 3\nvalue = 13.8"] ;
686 -> 687 ;
688 [label="price <= 3.2\nmse = 2.2\nsamples = 2\nvalue = 15.5"] ;
687 -> 688 ;
689 [label="mse = 0.0\nsamples = 1\nvalue = 17.0"] ;
688 -> 689 ;
690 [label="mse = 0.0\nsamples = 1\nvalue = 14.0"] ;
688 -> 690 ;
691 [label="mse = 0.0\nsamples = 1\nvalue = 7.0"] ;
687 -> 691 ;
692 [label="mse = 0.0\nsamples = 1\nvalue = 21.0"] ;
686 -> 692 ;
693 [label="price <= 3.2\nmse = 11.4\nsamples = 6\nvalue = 4.0"] ;
643 -> 693 ;
694 [label="REGULAR <= 0.5\nmse = 0.2\nsamples = 2\nvalue = 5.5"] ;
693 -> 694 ;
695 [label="mse = 0.0\nsamples = 1\nvalue = 6.0"] ;
694 -> 695 ;
696 [label="mse = 0.0\nsamples = 1\nvalue = 5.0"] ;
694 -> 696 ;
697 [label="price <= 3.3\nmse = 14.6\nsamples = 4\nvalue = 3.4"] ;
693 -> 697 ;
698 [label="mse = 0.0\nsamples = 2\nvalue = 1.0"] ;
697 -> 698 ;
699 [label="REGULAR <= 0.5\nmse = 18.0\nsamples = 2\nvalue = 5.0"] ;
697 -> 699 ;
700 [label="mse = 0.0\nsamples = 1\nvalue = 2.0"] ;
699 -> 700 ;
701 [label="mse = 0.0\nsamples = 1\nvalue = 11.0"] ;
699 -> 701 ;
702 [label="mse = 0.0\nsamples = 1\nvalue = 38.0"] ;
642 -> 702 ;
703 [label="CORN WHEAT & OAT <= 0.5\nmse = 117.8\nsamples = 139\nvalue = 13.8"] ;
171 -> 703 ;
704 [label="REGULAR <= 0.5\nmse = 96.6\nsamples = 131\nvalue = 12.9"] ;
703 -> 704 ;
705 [label="GRANOLA <= 0.5\nmse = 69.2\nsamples = 65\nvalue = 10.8"] ;
704 -> 705 ;
706 [label="vol_eq <= 1.3\nmse = 62.9\nsamples = 59\nvalue = 10.1"] ;
705 -> 706 ;
707 [label="ORIGINAL <= 0.5\nmse = 55.0\nsamples = 47\nvalue = 9.1"] ;
706 -> 707 ;
708 [label="COCOA <= 0.5\nmse = 50.4\nsamples = 42\nvalue = 8.4"] ;
707 -> 708 ;
709 [label="FRUIT <= 0.5\nmse = 44.3\nsamples = 39\nvalue = 7.7"] ;
708 -> 709 ;
710 [label="vol_eq <= 1.0\nmse = 34.6\nsamples = 33\nvalue = 6.5"] ;
709 -> 710 ;
711 [label="mse = 0.0\nsamples = 1\nvalue = 24.0"] ;
710 -> 711 ;
712 [label="price <= 3.0\nmse = 28.9\nsamples = 32\nvalue = 6.2"] ;
710 -> 712 ;
713 [label="vol_eq <= 1.1\nmse = 29.7\nsamples = 14\nvalue = 8.7"] ;
712 -> 713 ;
714 [label="BROWN SUGAR MAPLE <= 0.5\nmse = 0.2\nsamples = 2\nvalue = 13.5"] ;
713 -> 714 ;
715 [label="mse = 0.0\nsamples = 1\nvalue = 14.0"] ;
714 -> 715 ;
716 [label="mse = 0.0\nsamples = 1\nvalue = 13.0"] ;
714 -> 716 ;
717 [label="OAT BRAN <= 0.5\nmse = 30.0\nsamples = 12\nvalue = 7.6"] ;
713 -> 717 ;
718 [label="price <= 2.9\nmse = 26.0\nsamples = 11\nvalue = 7.0"] ;
717 -> 718 ;
719 [label="Feature_A <= 0.5\nmse = 29.1\nsamples = 5\nvalue = 9.7"] ;
718 -> 719 ;
720 [label="vol_eq <= 1.2\nmse = 27.6\nsamples = 4\nvalue = 10.7"] ;
719 -> 720 ;
721 [label="mse = 0.0\nsamples = 1\nvalue = 10.0"] ;
720 -> 721 ;
722 [label="price <= 2.7\nmse = 54.2\nsamples = 3\nvalue = 11.3"] ;
720 -> 722 ;
723 [label="mse = 81.0\nsamples = 2\nvalue = 11.0"] ;
722 -> 723 ;
724 [label="mse = 0.0\nsamples = 1\nvalue = 12.0"] ;
722 -> 724 ;
725 [label="mse = 0.0\nsamples = 1\nvalue = 4.0"] ;
719 -> 725 ;
726 [label="WHOLE GRAN WHT & BRN <= 0.5\nmse = 13.4\nsamples = 6\nvalue = 4.9"] ;
718 -> 726 ;
727 [label="WHEAT <= 0.5\nmse = 1.0\nsamples = 4\nvalue = 3.1"] ;
726 -> 727 ;
728 [label="mse = 0.0\nsamples = 2\nvalue = 2.0"] ;
727 -> 728 ;
729 [label="mse = 0.0\nsamples = 2\nvalue = 4.0"] ;
727 -> 729 ;
730 [label="Display_0 <= 0.5\nmse = 9.0\nsamples = 2\nvalue = 11.0"] ;
726 -> 730 ;
731 [label="mse = 0.0\nsamples = 1\nvalue = 14.0"] ;
730 -> 731 ;
732 [label="mse = 0.0\nsamples = 1\nvalue = 8.0"] ;
730 -> 732 ;
733 [label="mse = 0.0\nsamples = 1\nvalue = 17.0"] ;
717 -> 733 ;
734 [label="TOASTED HONEY <= 0.5\nmse = 19.9\nsamples = 18\nvalue = 4.3"] ;
712 -> 734 ;
735 [label="KELLOGGS <= 0.5\nmse = 6.3\nsamples = 15\nvalue = 3.4"] ;
734 -> 735 ;
736 [label="HONEY <= 0.5\nmse = 1.9\nsamples = 7\nvalue = 1.8"] ;
735 -> 736 ;
737 [label="WHOLE GRAIN WHEAT <= 0.5\nmse = 0.8\nsamples = 5\nvalue = 1.3"] ;
736 -> 737 ;
738 [label="mse = 0.0\nsamples = 3\nvalue = 1.0"] ;
737 -> 738 ;
739 [label="mse = 2.0\nsamples = 2\nvalue = 2.0"] ;
737 -> 739 ;
740 [label="mse = 1.0\nsamples = 2\nvalue = 4.0"] ;
736 -> 740 ;
741 [label="3 GRAIN <= 0.5\nmse = 5.8\nsamples = 8\nvalue = 4.8"] ;
735 -> 741 ;
742 [label="price <= 3.2\nmse = 2.6\nsamples = 4\nvalue = 3.9"] ;
741 -> 742 ;
743 [label="mse = 0.0\nsamples = 1\nvalue = 2.0"] ;
742 -> 743 ;
744 [label="CHOCOLATE <= 0.5\nmse = 2.4\nsamples = 3\nvalue = 4.1"] ;
742 -> 744 ;
745 [label="mse = 5.6\nsamples = 2\nvalue = 4.3"] ;
744 -> 745 ;
746 [label="mse = 0.0\nsamples = 1\nvalue = 4.0"] ;
744 -> 746 ;
747 [label="price <= 3.2\nmse = 7.0\nsamples = 4\nvalue = 6.4"] ;
741 -> 747 ;
748 [label="vol_eq <= 1.1\nmse = 3.6\nsamples = 2\nvalue = 4.7"] ;
747 -> 748 ;
749 [label="mse = 0.0\nsamples = 1\nvalue = 2.0"] ;
748 -> 749 ;
750 [label="mse = 0.0\nsamples = 1\nvalue = 6.0"] ;
748 -> 750 ;
751 [label="price <= 3.2\nmse = 1.0\nsamples = 2\nvalue = 9.0"] ;
747 -> 751 ;
752 [label="mse = 0.0\nsamples = 1\nvalue = 8.0"] ;
751 -> 752 ;
753 [label="mse = 0.0\nsamples = 1\nvalue = 10.0"] ;
751 -> 753 ;
754 [label="price <= 3.1\nmse = 66.7\nsamples = 3\nvalue = 12.0"] ;
734 -> 754 ;
755 [label="mse = 0.0\nsamples = 1\nvalue = 2.0"] ;
754 -> 755 ;
756 [label="price <= 3.2\nmse = 25.0\nsamples = 2\nvalue = 17.0"] ;
754 -> 756 ;
757 [label="mse = 0.0\nsamples = 1\nvalue = 22.0"] ;
756 -> 757 ;
758 [label="mse = 0.0\nsamples = 1\nvalue = 12.0"] ;
756 -> 758 ;
759 [label="price <= 3.2\nmse = 53.6\nsamples = 6\nvalue = 13.4"] ;
709 -> 759 ;
760 [label="price <= 3.0\nmse = 11.6\nsamples = 3\nvalue = 10.3"] ;
759 -> 760 ;
761 [label="mse = 0.0\nsamples = 1\nvalue = 15.0"] ;
760 -> 761 ;
762 [label="price <= 3.1\nmse = 1.0\nsamples = 2\nvalue = 8.0"] ;
760 -> 762 ;
763 [label="mse = 0.0\nsamples = 1\nvalue = 9.0"] ;
762 -> 763 ;
764 [label="mse = 0.0\nsamples = 1\nvalue = 7.0"] ;
762 -> 764 ;
765 [label="price <= 3.2\nmse = 81.5\nsamples = 3\nvalue = 18.0"] ;
759 -> 765 ;
766 [label="RICE <= 0.5\nmse = 1.0\nsamples = 2\nvalue = 27.0"] ;
765 -> 766 ;
767 [label="mse = 0.0\nsamples = 1\nvalue = 28.0"] ;
766 -> 767 ;
768 [label="mse = 0.0\nsamples = 1\nvalue = 26.0"] ;
766 -> 768 ;
769 [label="mse = 0.0\nsamples = 1\nvalue = 9.0"] ;
765 -> 769 ;
770 [label="price <= 3.2\nmse = 47.0\nsamples = 3\nvalue = 16.8"] ;
708 -> 770 ;
771 [label="price <= 3.1\nmse = 16.0\nsamples = 2\nvalue = 9.0"] ;
770 -> 771 ;
772 [label="mse = 0.0\nsamples = 1\nvalue = 5.0"] ;
771 -> 772 ;
773 [label="mse = 0.0\nsamples = 1\nvalue = 13.0"] ;
771 -> 773 ;
774 [label="mse = 0.0\nsamples = 1\nvalue = 22.0"] ;
770 -> 774 ;
775 [label="WHEAT BRAN <= 0.5\nmse = 42.6\nsamples = 5\nvalue = 16.7"] ;
707 -> 775 ;
776 [label="price <= 3.0\nmse = 44.2\nsamples = 4\nvalue = 15.6"] ;
775 -> 776 ;
777 [label="mse = 48.7\nsamples = 3\nvalue = 16.8"] ;
776 -> 777 ;
778 [label="mse = 0.0\nsamples = 1\nvalue = 11.0"] ;
776 -> 778 ;
779 [label="mse = 0.0\nsamples = 1\nvalue = 22.0"] ;
775 -> 779 ;
780 [label="price <= 3.1\nmse = 73.1\nsamples = 12\nvalue = 14.6"] ;
706 -> 780 ;
781 [label="3 GRAIN <= 0.5\nmse = 4.0\nsamples = 2\nvalue = 24.0"] ;
780 -> 781 ;
782 [label="mse = 0.0\nsamples = 1\nvalue = 22.0"] ;
781 -> 782 ;
783 [label="mse = 0.0\nsamples = 1\nvalue = 26.0"] ;
781 -> 783 ;
784 [label="OAT AND CORN <= 0.5\nmse = 56.6\nsamples = 10\nvalue = 11.4"] ;
780 -> 784 ;
785 [label="vol_eq <= 1.5\nmse = 49.8\nsamples = 8\nvalue = 9.8"] ;
784 -> 785 ;
786 [label="price <= 3.2\nmse = 23.5\nsamples = 6\nvalue = 8.5"] ;
785 -> 786 ;
787 [label="APPLE CINNAMON <= 0.5\nmse = 38.2\nsamples = 4\nvalue = 9.5"] ;
786 -> 787 ;
788 [label="price <= 3.2\nmse = 48.2\nsamples = 3\nvalue = 10.3"] ;
787 -> 788 ;
789 [label="mse = 0.0\nsamples = 1\nvalue = 10.0"] ;
788 -> 789 ;
790 [label="mse = 72.2\nsamples = 2\nvalue = 10.5"] ;
788 -> 790 ;
791 [label="mse = 0.0\nsamples = 1\nvalue = 7.0"] ;
787 -> 791 ;
792 [label="mse = 6.8\nsamples = 2\nvalue = 7.5"] ;
786 -> 792 ;
793 [label="price <= 3.2\nmse = 121.0\nsamples = 2\nvalue = 15.0"] ;
785 -> 793 ;
794 [label="mse = 0.0\nsamples = 1\nvalue = 4.0"] ;
793 -> 794 ;
795 [label="mse = 0.0\nsamples = 1\nvalue = 26.0"] ;
793 -> 795 ;
796 [label="vol_eq <= 1.3\nmse = 12.2\nsamples = 2\nvalue = 19.5"] ;
784 -> 796 ;
797 [label="mse = 0.0\nsamples = 1\nvalue = 23.0"] ;
796 -> 797 ;
798 [label="mse = 0.0\nsamples = 1\nvalue = 16.0"] ;
796 -> 798 ;
799 [label="price <= 3.0\nmse = 67.4\nsamples = 6\nvalue = 18.9"] ;
705 -> 799 ;
800 [label="Feature_A <= 0.5\nmse = 21.6\nsamples = 4\nvalue = 24.0"] ;
799 -> 800 ;
801 [label="BANANA NUT <= 0.5\nmse = 19.2\nsamples = 3\nvalue = 22.8"] ;
800 -> 801 ;
802 [label="mse = 0.0\nsamples = 1\nvalue = 27.0"] ;
801 -> 802 ;
803 [label="price <= 3.0\nmse = 2.2\nsamples = 2\nvalue = 18.5"] ;
801 -> 803 ;
804 [label="mse = 0.0\nsamples = 1\nvalue = 17.0"] ;
803 -> 804 ;
805 [label="mse = 0.0\nsamples = 1\nvalue = 20.0"] ;
803 -> 805 ;
806 [label="mse = 0.0\nsamples = 1\nvalue = 29.0"] ;
800 -> 806 ;
807 [label="price <= 3.1\nmse = 26.9\nsamples = 2\nvalue = 10.3"] ;
799 -> 807 ;
808 [label="mse = 0.0\nsamples = 1\nvalue = 14.0"] ;
807 -> 808 ;
809 [label="mse = 0.0\nsamples = 1\nvalue = 3.0"] ;
807 -> 809 ;
810 [label="WHOLE GRAIN WHEAT <= 0.5\nmse = 115.5\nsamples = 66\nvalue = 15.1"] ;
704 -> 810 ;
811 [label="vol_eq <= 1.0\nmse = 107.7\nsamples = 57\nvalue = 14.1"] ;
810 -> 811 ;
812 [label="price <= 3.1\nmse = 205.6\nsamples = 13\nvalue = 18.6"] ;
811 -> 812 ;
813 [label="Feature_NONE <= 0.5\nmse = 239.6\nsamples = 6\nvalue = 27.5"] ;
812 -> 813 ;
814 [label="mse = 0.0\nsamples = 1\nvalue = 50.0"] ;
813 -> 814 ;
815 [label="POST <= 0.5\nmse = 203.8\nsamples = 5\nvalue = 25.0"] ;
813 -> 815 ;
816 [label="price <= 2.8\nmse = 30.2\nsamples = 2\nvalue = 18.5"] ;
815 -> 816 ;
817 [label="mse = 0.0\nsamples = 1\nvalue = 24.0"] ;
816 -> 817 ;
818 [label="mse = 0.0\nsamples = 1\nvalue = 13.0"] ;
816 -> 818 ;
819 [label="mse = 281.8\nsamples = 3\nvalue = 30.2"] ;
815 -> 819 ;
820 [label="OAT <= 0.5\nmse = 13.2\nsamples = 7\nvalue = 9.7"] ;
812 -> 820 ;
821 [label="POST <= 0.5\nmse = 6.7\nsamples = 5\nvalue = 7.9"] ;
820 -> 821 ;
822 [label="mse = 0.0\nsamples = 1\nvalue = 6.0"] ;
821 -> 822 ;
823 [label="price <= 3.2\nmse = 7.1\nsamples = 4\nvalue = 8.2"] ;
821 -> 823 ;
824 [label="mse = 16.0\nsamples = 2\nvalue = 10.0"] ;
823 -> 824 ;
825 [label="mse = 0.2\nsamples = 2\nvalue = 7.2"] ;
823 -> 825 ;
826 [label="price <= 3.3\nmse = 2.0\nsamples = 2\nvalue = 14.0"] ;
820 -> 826 ;
827 [label="mse = 0.0\nsamples = 1\nvalue = 12.0"] ;
826 -> 827 ;
828 [label="mse = 0.0\nsamples = 1\nvalue = 15.0"] ;
826 -> 828 ;
829 [label="price <= 2.9\nmse = 66.1\nsamples = 44\nvalue = 12.6"] ;
811 -> 829 ;
830 [label="price <= 2.7\nmse = 36.8\nsamples = 5\nvalue = 19.0"] ;
829 -> 830 ;
831 [label="mse = 0.0\nsamples = 1\nvalue = 9.0"] ;
830 -> 831 ;
832 [label="price <= 2.8\nmse = 25.7\nsamples = 4\nvalue = 20.4"] ;
830 -> 832 ;
833 [label="mse = 16.0\nsamples = 2\nvalue = 23.0"] ;
832 -> 833 ;
834 [label="vol_eq <= 1.1\nmse = 18.0\nsamples = 2\nvalue = 17.0"] ;
832 -> 834 ;
835 [label="mse = 0.0\nsamples = 1\nvalue = 23.0"] ;
834 -> 835 ;
836 [label="mse = 0.0\nsamples = 1\nvalue = 14.0"] ;
834 -> 836 ;
837 [label="vol_eq <= 1.2\nmse = 63.4\nsamples = 39\nvalue = 11.6"] ;
829 -> 837 ;
838 [label="WHL GRN WHT WHT BRN <= 0.5\nmse = 61.0\nsamples = 15\nvalue = 9.6"] ;
837 -> 838 ;
839 [label="vol_eq <= 1.1\nmse = 31.7\nsamples = 14\nvalue = 8.4"] ;
838 -> 839 ;
840 [label="price <= 3.1\nmse = 37.0\nsamples = 4\nvalue = 12.9"] ;
839 -> 840 ;
841 [label="CORN <= 0.5\nmse = 15.2\nsamples = 3\nvalue = 8.2"] ;
840 -> 841 ;
842 [label="mse = 0.0\nsamples = 1\nvalue = 8.0"] ;
841 -> 842 ;
843 [label="mse = 30.2\nsamples = 2\nvalue = 8.5"] ;
841 -> 843 ;
844 [label="mse = 0.0\nsamples = 1\nvalue = 19.0"] ;
840 -> 844 ;
845 [label="price <= 3.0\nmse = 14.0\nsamples = 10\nvalue = 6.1"] ;
839 -> 845 ;
846 [label="Feature_NONE <= 0.5\nmse = 7.1\nsamples = 3\nvalue = 3.8"] ;
845 -> 846 ;
847 [label="mse = 0.0\nsamples = 1\nvalue = 9.0"] ;
846 -> 847 ;
848 [label="vol_eq <= 1.1\nmse = 2.2\nsamples = 2\nvalue = 2.8"] ;
846 -> 848 ;
849 [label="mse = 0.0\nsamples = 1\nvalue = 1.0"] ;
848 -> 849 ;
850 [label="mse = 0.0\nsamples = 1\nvalue = 4.0"] ;
848 -> 850 ;
851 [label="price <= 3.3\nmse = 12.1\nsamples = 7\nvalue = 7.9"] ;
845 -> 851 ;
852 [label="GENERAL MILLS <= 0.5\nmse = 5.2\nsamples = 5\nvalue = 9.5"] ;
851 -> 852 ;
853 [label="POST <= 0.5\nmse = 3.2\nsamples = 4\nvalue = 8.2"] ;
852 -> 853 ;
854 [label="price <= 3.3\nmse = 2.0\nsamples = 3\nvalue = 9.0"] ;
853 -> 854 ;
855 [label="mse = 0.0\nsamples = 2\nvalue = 8.0"] ;
854 -> 855 ;
856 [label="mse = 0.0\nsamples = 1\nvalue = 11.0"] ;
854 -> 856 ;
857 [label="mse = 0.0\nsamples = 1\nvalue = 6.0"] ;
853 -> 857 ;
858 [label="mse = 0.0\nsamples = 1\nvalue = 12.0"] ;
852 -> 858 ;
859 [label="vol_eq <= 1.1\nmse = 1.0\nsamples = 2\nvalue = 3.0"] ;
851 -> 859 ;
860 [label="mse = 0.0\nsamples = 1\nvalue = 4.0"] ;
859 -> 860 ;
861 [label="mse = 0.0\nsamples = 1\nvalue = 2.0"] ;
859 -> 861 ;
862 [label="mse = 0.0\nsamples = 1\nvalue = 35.0"] ;
838 -> 862 ;
863 [label="price <= 3.3\nmse = 59.9\nsamples = 24\nvalue = 13.1"] ;
837 -> 863 ;
864 [label="price <= 3.2\nmse = 49.4\nsamples = 20\nvalue = 11.9"] ;
863 -> 864 ;
865 [label="KELLOGGS <= 0.5\nmse = 51.3\nsamples = 14\nvalue = 13.9"] ;
864 -> 865 ;
866 [label="price <= 3.0\nmse = 52.2\nsamples = 6\nvalue = 18.5"] ;
865 -> 866 ;
867 [label="price <= 3.0\nmse = 0.2\nsamples = 4\nvalue = 13.5"] ;
866 -> 867 ;
868 [label="mse = 0.0\nsamples = 1\nvalue = 13.0"] ;
867 -> 868 ;
869 [label="Display_2 <= 0.5\nmse = 0.2\nsamples = 3\nvalue = 13.7"] ;
867 -> 869 ;
870 [label="mse = 0.2\nsamples = 2\nvalue = 13.5"] ;
869 -> 870 ;
871 [label="mse = 0.0\nsamples = 1\nvalue = 14.0"] ;
869 -> 871 ;
872 [label="POST <= 0.5\nmse = 6.2\nsamples = 2\nvalue = 28.5"] ;
866 -> 872 ;
873 [label="mse = 0.0\nsamples = 1\nvalue = 26.0"] ;
872 -> 873 ;
874 [label="mse = 0.0\nsamples = 1\nvalue = 31.0"] ;
872 -> 874 ;
875 [label="vol_eq <= 1.5\nmse = 34.9\nsamples = 8\nvalue = 11.6"] ;
865 -> 875 ;
876 [label="price <= 3.1\nmse = 21.9\nsamples = 5\nvalue = 13.7"] ;
875 -> 876 ;
877 [label="price <= 3.0\nmse = 4.0\nsamples = 2\nvalue = 8.0"] ;
876 -> 877 ;
878 [label="mse = 0.0\nsamples = 1\nvalue = 6.0"] ;
877 -> 878 ;
879 [label="mse = 0.0\nsamples = 1\nvalue = 10.0"] ;
877 -> 879 ;
880 [label="vol_eq <= 1.3\nmse = 6.8\nsamples = 3\nvalue = 16.5"] ;
876 -> 880 ;
881 [label="mse = 3.6\nsamples = 2\nvalue = 15.3"] ;
880 -> 881 ;
882 [label="mse = 0.0\nsamples = 1\nvalue = 20.0"] ;
880 -> 882 ;
883 [label="price <= 3.1\nmse = 39.2\nsamples = 3\nvalue = 9.5"] ;
875 -> 883 ;
884 [label="mse = 0.0\nsamples = 1\nvalue = 18.0"] ;
883 -> 884 ;
885 [label="mse = 4.7\nsamples = 2\nvalue = 5.2"] ;
883 -> 885 ;
886 [label="WHOLE GRAIN OAT <= 0.5\nmse = 9.0\nsamples = 6\nvalue = 6.9"] ;
864 -> 886 ;
887 [label="vol_eq <= 1.5\nmse = 7.1\nsamples = 5\nvalue = 6.2"] ;
886 -> 887 ;
888 [label="price <= 3.3\nmse = 6.6\nsamples = 4\nvalue = 5.6"] ;
887 -> 888 ;
889 [label="QUAKER <= 0.5\nmse = 3.6\nsamples = 3\nvalue = 7.3"] ;
888 -> 889 ;
890 [label="mse = 0.0\nsamples = 1\nvalue = 10.0"] ;
889 -> 890 ;
891 [label="mse = 0.0\nsamples = 2\nvalue = 6.0"] ;
889 -> 891 ;
892 [label="mse = 0.0\nsamples = 1\nvalue = 3.0"] ;
888 -> 892 ;
893 [label="mse = 0.0\nsamples = 1\nvalue = 9.0"] ;
887 -> 893 ;
894 [label="mse = 0.0\nsamples = 1\nvalue = 11.0"] ;
886 -> 894 ;
895 [label="CORN <= 0.5\nmse = 68.2\nsamples = 4\nvalue = 19.2"] ;
863 -> 895 ;
896 [label="price <= 3.3\nmse = 6.9\nsamples = 3\nvalue = 12.7"] ;
895 -> 896 ;
897 [label="mse = 0.0\nsamples = 1\nvalue = 9.0"] ;
896 -> 897 ;
898 [label="price <= 3.4\nmse = 0.2\nsamples = 2\nvalue = 14.5"] ;
896 -> 898 ;
899 [label="mse = 0.0\nsamples = 1\nvalue = 15.0"] ;
898 -> 899 ;
900 [label="mse = 0.0\nsamples = 1\nvalue = 14.0"] ;
898 -> 900 ;
901 [label="mse = 0.0\nsamples = 1\nvalue = 29.0"] ;
895 -> 901 ;
902 [label="Display_0 <= 0.5\nmse = 122.6\nsamples = 9\nvalue = 21.0"] ;
810 -> 902 ;
903 [label="price <= 3.3\nmse = 0.2\nsamples = 2\nvalue = 5.5"] ;
902 -> 903 ;
904 [label="mse = 0.0\nsamples = 1\nvalue = 6.0"] ;
903 -> 904 ;
905 [label="mse = 0.0\nsamples = 1\nvalue = 5.0"] ;
903 -> 905 ;
906 [label="POST <= 0.5\nmse = 93.2\nsamples = 7\nvalue = 23.8"] ;
902 -> 906 ;
907 [label="price <= 3.2\nmse = 84.2\nsamples = 5\nvalue = 26.0"] ;
906 -> 907 ;
908 [label="vol_eq <= 1.3\nmse = 144.5\nsamples = 3\nvalue = 27.0"] ;
907 -> 908 ;
909 [label="mse = 289.0\nsamples = 2\nvalue = 27.0"] ;
908 -> 909 ;
910 [label="mse = 0.0\nsamples = 1\nvalue = 27.0"] ;
908 -> 910 ;
911 [label="mse = 34.6\nsamples = 2\nvalue = 25.2"] ;
907 -> 911 ;
912 [label="price <= 3.0\nmse = 16.0\nsamples = 2\nvalue = 14.0"] ;
906 -> 912 ;
913 [label="mse = 0.0\nsamples = 1\nvalue = 18.0"] ;
912 -> 913 ;
914 [label="mse = 0.0\nsamples = 1\nvalue = 10.0"] ;
912 -> 914 ;
915 [label="Display_2 <= 0.5\nmse = 249.6\nsamples = 8\nvalue = 29.7"] ;
703 -> 915 ;
916 [label="price <= 3.1\nmse = 207.4\nsamples = 7\nvalue = 25.1"] ;
915 -> 916 ;
917 [label="HONEY ROASTED <= 0.5\nmse = 86.8\nsamples = 4\nvalue = 21.0"] ;
916 -> 917 ;
918 [label="mse = 6.2\nsamples = 2\nvalue = 10.5"] ;
917 -> 918 ;
919 [label="mse = 18.0\nsamples = 2\nvalue = 28.0"] ;
917 -> 919 ;
920 [label="price <= 3.3\nmse = 332.7\nsamples = 3\nvalue = 32.0"] ;
916 -> 920 ;
921 [label="HONEY ROASTED <= 0.5\nmse = 256.0\nsamples = 2\nvalue = 41.0"] ;
920 -> 921 ;
922 [label="mse = 0.0\nsamples = 1\nvalue = 57.0"] ;
921 -> 922 ;
923 [label="mse = 0.0\nsamples = 1\nvalue = 25.0"] ;
921 -> 923 ;
924 [label="mse = 0.0\nsamples = 1\nvalue = 14.0"] ;
920 -> 924 ;
925 [label="mse = 0.0\nsamples = 1\nvalue = 48.0"] ;
915 -> 925 ;
926 [label="price <= 3.3\nmse = 436.2\nsamples = 3\nvalue = 47.3"] ;
4 -> 926 ;
927 [label="CORN <= 0.5\nmse = 9.0\nsamples = 2\nvalue = 62.0"] ;
926 -> 927 ;
928 [label="mse = 0.0\nsamples = 1\nvalue = 65.0"] ;
927 -> 928 ;
929 [label="mse = 0.0\nsamples = 1\nvalue = 59.0"] ;
927 -> 929 ;
930 [label="mse = 0.0\nsamples = 1\nvalue = 18.0"] ;
926 -> 930 ;
931 [label="vol_eq <= 0.8\nmse = 229.0\nsamples = 63\nvalue = 18.4"] ;
3 -> 931 ;
932 [label="Feature_NONE <= 0.5\nmse = 176.0\nsamples = 46\nvalue = 15.7"] ;
931 -> 932 ;
933 [label="Display_0 <= 0.5\nmse = 13.1\nsamples = 5\nvalue = 6.4"] ;
932 -> 933 ;
934 [label="mse = 0.0\nsamples = 1\nvalue = 2.0"] ;
933 -> 934 ;
935 [label="price <= 2.8\nmse = 11.5\nsamples = 4\nvalue = 7.2"] ;
933 -> 935 ;
936 [label="mse = 0.0\nsamples = 1\nvalue = 14.0"] ;
935 -> 936 ;
937 [label="Feature_A <= 0.5\nmse = 2.6\nsamples = 3\nvalue = 5.8"] ;
935 -> 937 ;
938 [label="mse = 0.0\nsamples = 1\nvalue = 7.0"] ;
937 -> 938 ;
939 [label="price <= 3.2\nmse = 1.0\nsamples = 2\nvalue = 4.0"] ;
937 -> 939 ;
940 [label="mse = 0.0\nsamples = 1\nvalue = 5.0"] ;
939 -> 940 ;
941 [label="mse = 0.0\nsamples = 1\nvalue = 3.0"] ;
939 -> 941 ;
942 [label="vol_eq <= 0.6\nmse = 183.6\nsamples = 41\nvalue = 16.8"] ;
932 -> 942 ;
943 [label="price <= 3.3\nmse = 207.0\nsamples = 25\nvalue = 19.4"] ;
942 -> 943 ;
944 [label="Display_0 <= 0.5\nmse = 141.6\nsamples = 22\nvalue = 16.4"] ;
943 -> 944 ;
945 [label="vol_eq <= 0.3\nmse = 117.8\nsamples = 3\nvalue = 25.2"] ;
944 -> 945 ;
946 [label="mse = 0.0\nsamples = 1\nvalue = 38.0"] ;
945 -> 946 ;
947 [label="Display_1 <= 0.5\nmse = 14.2\nsamples = 2\nvalue = 16.7"] ;
945 -> 947 ;
948 [label="mse = 0.0\nsamples = 1\nvalue = 22.0"] ;
947 -> 948 ;
949 [label="mse = 0.0\nsamples = 1\nvalue = 14.0"] ;
947 -> 949 ;
950 [label="price <= 2.2\nmse = 129.5\nsamples = 19\nvalue = 14.8"] ;
944 -> 950 ;
951 [label="vol_eq <= 0.0\nmse = 25.7\nsamples = 7\nvalue = 9.2"] ;
950 -> 951 ;
952 [label="mse = 0.0\nsamples = 1\nvalue = 17.0"] ;
951 -> 952 ;
953 [label="vol_eq <= 0.1\nmse = 16.4\nsamples = 6\nvalue = 7.7"] ;
951 -> 953 ;
954 [label="price <= 1.0\nmse = 0.8\nsamples = 2\nvalue = 4.5"] ;
953 -> 954 ;
955 [label="mse = 0.0\nsamples = 1\nvalue = 6.0"] ;
954 -> 955 ;
956 [label="mse = 0.0\nsamples = 1\nvalue = 4.0"] ;
954 -> 956 ;
957 [label="CUP <= 0.5\nmse = 15.5\nsamples = 4\nvalue = 9.8"] ;
953 -> 957 ;
958 [label="mse = 0.0\nsamples = 1\nvalue = 3.0"] ;
957 -> 958 ;
959 [label="price <= 1.2\nmse = 7.4\nsamples = 3\nvalue = 11.2"] ;
957 -> 959 ;
960 [label="mse = 0.0\nsamples = 1\nvalue = 6.0"] ;
959 -> 960 ;
961 [label="price <= 1.5\nmse = 0.8\nsamples = 2\nvalue = 12.5"] ;
959 -> 961 ;
962 [label="mse = 0.0\nsamples = 1\nvalue = 11.0"] ;
961 -> 962 ;
963 [label="mse = 0.0\nsamples = 1\nvalue = 13.0"] ;
961 -> 963 ;
964 [label="price <= 2.6\nmse = 166.6\nsamples = 12\nvalue = 19.0"] ;
950 -> 964 ;
965 [label="mse = 0.0\nsamples = 1\nvalue = 51.0"] ;
964 -> 965 ;
966 [label="vol_eq <= 0.6\nmse = 104.9\nsamples = 11\nvalue = 16.9"] ;
964 -> 966 ;
967 [label="price <= 2.9\nmse = 41.3\nsamples = 9\nvalue = 14.2"] ;
966 -> 967 ;
968 [label="vol_eq <= 0.5\nmse = 0.9\nsamples = 3\nvalue = 6.3"] ;
967 -> 968 ;
969 [label="mse = 0.0\nsamples = 1\nvalue = 5.0"] ;
968 -> 969 ;
970 [label="mse = 0.0\nsamples = 2\nvalue = 7.0"] ;
968 -> 970 ;
971 [label="price <= 3.0\nmse = 27.5\nsamples = 6\nvalue = 16.8"] ;
967 -> 971 ;
972 [label="mse = 0.0\nsamples = 1\nvalue = 21.0"] ;
971 -> 972 ;
973 [label="price <= 3.0\nmse = 28.8\nsamples = 5\nvalue = 15.6"] ;
971 -> 973 ;
974 [label="mse = 0.0\nsamples = 1\nvalue = 12.0"] ;
973 -> 974 ;
975 [label="price <= 3.1\nmse = 33.2\nsamples = 4\nvalue = 17.0"] ;
973 -> 975 ;
976 [label="mse = 0.0\nsamples = 1\nvalue = 22.0"] ;
975 -> 976 ;
977 [label="price <= 3.2\nmse = 27.6\nsamples = 3\nvalue = 13.7"] ;
975 -> 977 ;
978 [label="mse = 36.0\nsamples = 2\nvalue = 15.0"] ;
977 -> 978 ;
979 [label="mse = 0.0\nsamples = 1\nvalue = 11.0"] ;
977 -> 979 ;
980 [label="mse = 213.6\nsamples = 2\nvalue = 27.7"] ;
966 -> 980 ;
981 [label="mse = 194.8\nsamples = 3\nvalue = 39.0"] ;
943 -> 981 ;
982 [label="price <= 3.1\nmse = 119.0\nsamples = 16\nvalue = 12.7"] ;
942 -> 982 ;
983 [label="price <= 2.9\nmse = 138.6\nsamples = 6\nvalue = 21.5"] ;
982 -> 983 ;
984 [label="KELLOGGS <= 0.5\nmse = 18.5\nsamples = 4\nvalue = 14.3"] ;
983 -> 984 ;
985 [label="price <= 2.6\nmse = 0.2\nsamples = 2\nvalue = 9.3"] ;
984 -> 985 ;
986 [label="mse = 0.0\nsamples = 1\nvalue = 9.0"] ;
985 -> 986 ;
987 [label="mse = 0.0\nsamples = 1\nvalue = 10.0"] ;
985 -> 987 ;
988 [label="mse = 0.0\nsamples = 2\nvalue = 18.0"] ;
984 -> 988 ;
989 [label="price <= 3.0\nmse = 14.2\nsamples = 2\nvalue = 38.3"] ;
983 -> 989 ;
990 [label="mse = 0.0\nsamples = 1\nvalue = 41.0"] ;
989 -> 990 ;
991 [label="mse = 0.0\nsamples = 1\nvalue = 33.0"] ;
989 -> 991 ;
992 [label="price <= 3.3\nmse = 9.4\nsamples = 10\nvalue = 6.4"] ;
982 -> 992 ;
993 [label="vol_eq <= 0.7\nmse = 8.7\nsamples = 8\nvalue = 7.2"] ;
992 -> 993 ;
994 [label="mse = 0.0\nsamples = 1\nvalue = 1.0"] ;
993 -> 994 ;
995 [label="price <= 3.1\nmse = 5.4\nsamples = 7\nvalue = 7.8"] ;
993 -> 995 ;
996 [label="mse = 0.0\nsamples = 1\nvalue = 5.0"] ;
995 -> 996 ;
997 [label="price <= 3.1\nmse = 5.0\nsamples = 6\nvalue = 8.1"] ;
995 -> 997 ;
998 [label="mse = 0.0\nsamples = 1\nvalue = 13.0"] ;
997 -> 998 ;
999 [label="price <= 3.2\nmse = 2.2\nsamples = 5\nvalue = 7.5"] ;
997 -> 999 ;
1000 [label="WHOLE GRAIN OAT <= 0.5\nmse = 2.9\nsamples = 4\nvalue = 7.7"] ;
999 -> 1000 ;
1001 [label="mse = 2.2\nsamples = 2\nvalue = 7.5"] ;
1000 -> 1001 ;
1002 [label="mse = 4.0\nsamples = 2\nvalue = 8.0"] ;
1000 -> 1002 ;
1003 [label="mse = 0.0\nsamples = 1\nvalue = 7.0"] ;
999 -> 1003 ;
1004 [label="price <= 3.3\nmse = 0.2\nsamples = 2\nvalue = 3.3"] ;
992 -> 1004 ;
1005 [label="mse = 0.0\nsamples = 1\nvalue = 3.0"] ;
1004 -> 1005 ;
1006 [label="mse = 0.0\nsamples = 1\nvalue = 4.0"] ;
1004 -> 1006 ;
1007 [label="GENERAL MILLS <= 0.5\nmse = 300.9\nsamples = 17\nvalue = 25.5"] ;
931 -> 1007 ;
1008 [label="MULTI GRAIN <= 0.5\nmse = 12.7\nsamples = 4\nvalue = 16.7"] ;
1007 -> 1008 ;
1009 [label="price <= 3.1\nmse = 3.7\nsamples = 3\nvalue = 17.8"] ;
1008 -> 1009 ;
1010 [label="mse = 0.0\nsamples = 1\nvalue = 21.0"] ;
1009 -> 1010 ;
1011 [label="vol_eq <= 1.0\nmse = 0.2\nsamples = 2\nvalue = 16.7"] ;
1009 -> 1011 ;
1012 [label="mse = 0.0\nsamples = 1\nvalue = 16.0"] ;
1011 -> 1012 ;
1013 [label="mse = 0.0\nsamples = 1\nvalue = 17.0"] ;
1011 -> 1013 ;
1014 [label="mse = 0.0\nsamples = 1\nvalue = 8.0"] ;
1008 -> 1014 ;
1015 [label="price <= 2.6\nmse = 390.8\nsamples = 13\nvalue = 30.1"] ;
1007 -> 1015 ;
1016 [label="price <= 2.1\nmse = 74.7\nsamples = 3\nvalue = 13.0"] ;
1015 -> 1016 ;
1017 [label="mse = 0.0\nsamples = 1\nvalue = 1.0"] ;
1016 -> 1017 ;
1018 [label="price <= 2.4\nmse = 4.0\nsamples = 2\nvalue = 19.0"] ;
1016 -> 1018 ;
1019 [label="mse = 0.0\nsamples = 1\nvalue = 21.0"] ;
1018 -> 1019 ;
1020 [label="mse = 0.0\nsamples = 1\nvalue = 17.0"] ;
1018 -> 1020 ;
1021 [label="price <= 2.8\nmse = 382.3\nsamples = 10\nvalue = 33.8"] ;
1015 -> 1021 ;
1022 [label="mse = 0.0\nsamples = 1\nvalue = 63.0"] ;
1021 -> 1022 ;
1023 [label="price <= 3.1\nmse = 341.0\nsamples = 9\nvalue = 31.5"] ;
1021 -> 1023 ;
1024 [label="vol_eq <= 1.0\nmse = 295.1\nsamples = 5\nvalue = 24.0"] ;
1023 -> 1024 ;
1025 [label="price <= 3.0\nmse = 169.3\nsamples = 4\nvalue = 19.0"] ;
1024 -> 1025 ;
1026 [label="price <= 2.9\nmse = 107.0\nsamples = 3\nvalue = 26.0"] ;
1025 -> 1026 ;
1027 [label="mse = 0.0\nsamples = 1\nvalue = 9.0"] ;
1026 -> 1027 ;
1028 [label="Feature_A <= 0.5\nmse = 14.2\nsamples = 2\nvalue = 31.7"] ;
1026 -> 1028 ;
1029 [label="mse = 0.0\nsamples = 1\nvalue = 37.0"] ;
1028 -> 1029 ;
1030 [label="mse = 0.0\nsamples = 1\nvalue = 29.0"] ;
1028 -> 1030 ;
1031 [label="mse = 0.0\nsamples = 1\nvalue = 5.0"] ;
1025 -> 1031 ;
1032 [label="mse = 0.0\nsamples = 1\nvalue = 54.0"] ;
1024 -> 1032 ;
1033 [label="price <= 3.3\nmse = 250.9\nsamples = 4\nvalue = 40.3"] ;
1023 -> 1033 ;
1034 [label="price <= 3.2\nmse = 1.4\nsamples = 3\nvalue = 47.4"] ;
1033 -> 1034 ;
1035 [label="mse = 1.0\nsamples = 2\nvalue = 47.0"] ;
1034 -> 1035 ;
1036 [label="mse = 0.0\nsamples = 1\nvalue = 49.0"] ;
1034 -> 1036 ;
1037 [label="mse = 0.0\nsamples = 1\nvalue = 5.0"] ;
1033 -> 1037 ;
1038 [label="price <= 2.2\nmse = 98.6\nsamples = 812\nvalue = 8.9"] ;
2 -> 1038 ;
1039 [label="WHOLE WHEAT AND RICE <= 0.5\nmse = 145.1\nsamples = 288\nvalue = 11.9"] ;
1038 -> 1039 ;
1040 [label="vol_eq <= 0.7\nmse = 119.7\nsamples = 285\nvalue = 11.3"] ;
1039 -> 1040 ;
1041 [label="WHOLE GRAIN CORN <= 0.5\nmse = 13.6\nsamples = 71\nvalue = 4.8"] ;
1040 -> 1041 ;
1042 [label="Display_2 <= 0.5\nmse = 10.2\nsamples = 69\nvalue = 4.6"] ;
1041 -> 1042 ;
1043 [label="vol_eq <= 0.6\nmse = 9.3\nsamples = 68\nvalue = 4.4"] ;
1042 -> 1043 ;
1044 [label="MISSING <= 0.5\nmse = 6.9\nsamples = 47\nvalue = 3.6"] ;
1043 -> 1044 ;
1045 [label="WHEAT <= 0.5\nmse = 5.7\nsamples = 46\nvalue = 3.5"] ;
1044 -> 1045 ;
1046 [label="BERRY <= 0.5\nmse = 3.6\nsamples = 29\nvalue = 2.8"] ;
1045 -> 1046 ;
1047 [label="REGULAR <= 0.5\nmse = 3.2\nsamples = 27\nvalue = 2.6"] ;
1046 -> 1047 ;
1048 [label="TOASTED <= 0.5\nmse = 0.5\nsamples = 10\nvalue = 1.8"] ;
1047 -> 1048 ;
1049 [label="price <= 1.9\nmse = 0.2\nsamples = 7\nvalue = 1.5"] ;
1048 -> 1049 ;
1050 [label="Feature_B <= 0.5\nmse = 0.2\nsamples = 5\nvalue = 1.7"] ;
1049 -> 1050 ;
1051 [label="FRUIT <= 0.5\nmse = 0.2\nsamples = 4\nvalue = 1.8"] ;
1050 -> 1051 ;
1052 [label="mse = 0.0\nsamples = 3\nvalue = 2.0"] ;
1051 -> 1052 ;
1053 [label="mse = 0.0\nsamples = 1\nvalue = 1.0"] ;
1051 -> 1053 ;
1054 [label="mse = 0.0\nsamples = 1\nvalue = 1.0"] ;
1050 -> 1054 ;
1055 [label="mse = 0.0\nsamples = 2\nvalue = 1.0"] ;
1049 -> 1055 ;
1056 [label="vol_eq <= 0.5\nmse = 0.2\nsamples = 3\nvalue = 2.5"] ;
1048 -> 1056 ;
1057 [label="price <= 1.6\nmse = 0.2\nsamples = 2\nvalue = 2.3"] ;
1056 -> 1057 ;
1058 [label="mse = 0.0\nsamples = 1\nvalue = 3.0"] ;
1057 -> 1058 ;
1059 [label="mse = 0.0\nsamples = 1\nvalue = 2.0"] ;
1057 -> 1059 ;
1060 [label="mse = 0.0\nsamples = 1\nvalue = 3.0"] ;
1056 -> 1060 ;
1061 [label="price <= 1.3\nmse = 4.1\nsamples = 17\nvalue = 3.0"] ;
1047 -> 1061 ;
1062 [label="price <= 1.0\nmse = 3.5\nsamples = 10\nvalue = 2.3"] ;
1061 -> 1062 ;
1063 [label="price <= 1.0\nmse = 4.1\nsamples = 6\nvalue = 3.1"] ;
1062 -> 1063 ;
1064 [label="mse = 0.0\nsamples = 1\nvalue = 1.0"] ;
1063 -> 1064 ;
1065 [label="price <= 1.0\nmse = 4.0\nsamples = 5\nvalue = 3.4"] ;
1063 -> 1065 ;
1066 [label="BAG <= 0.5\nmse = 5.6\nsamples = 2\nvalue = 4.7"] ;
1065 -> 1066 ;
1067 [label="mse = 0.0\nsamples = 1\nvalue = 8.0"] ;
1066 -> 1067 ;
1068 [label="mse = 0.0\nsamples = 1\nvalue = 3.0"] ;
1066 -> 1068 ;
1069 [label="CORN <= 0.5\nmse = 1.4\nsamples = 3\nvalue = 2.6"] ;
1065 -> 1069 ;
1070 [label="mse = 0.0\nsamples = 1\nvalue = 4.0"] ;
1069 -> 1070 ;
1071 [label="Feature_A <= 0.5\nmse = 0.2\nsamples = 2\nvalue = 1.7"] ;
1069 -> 1071 ;
1072 [label="mse = 0.0\nsamples = 1\nvalue = 1.0"] ;
1071 -> 1072 ;
1073 [label="mse = 0.0\nsamples = 1\nvalue = 2.0"] ;
1071 -> 1073 ;
1074 [label="mse = 0.0\nsamples = 4\nvalue = 1.0"] ;
1062 -> 1074 ;
1075 [label="PLASTIC BAG <= 0.5\nmse = 3.1\nsamples = 7\nvalue = 4.0"] ;
1061 -> 1075 ;
1076 [label="price <= 1.6\nmse = 1.2\nsamples = 3\nvalue = 5.0"] ;
1075 -> 1076 ;
1077 [label="mse = 0.0\nsamples = 1\nvalue = 5.0"] ;
1076 -> 1077 ;
1078 [label="mse = 2.0\nsamples = 2\nvalue = 5.0"] ;
1076 -> 1078 ;
1079 [label="price <= 1.6\nmse = 3.1\nsamples = 4\nvalue = 3.2"] ;
1075 -> 1079 ;
1080 [label="price <= 1.4\nmse = 1.2\nsamples = 3\nvalue = 4.2"] ;
1079 -> 1080 ;
1081 [label="mse = 0.0\nsamples = 1\nvalue = 6.0"] ;
1080 -> 1081 ;
1082 [label="price <= 1.5\nmse = 0.2\nsamples = 2\nvalue = 3.7"] ;
1080 -> 1082 ;
1083 [label="mse = 0.0\nsamples = 1\nvalue = 3.0"] ;
1082 -> 1083 ;
1084 [label="mse = 0.0\nsamples = 1\nvalue = 4.0"] ;
1082 -> 1084 ;
1085 [label="mse = 0.0\nsamples = 1\nvalue = 1.0"] ;
1079 -> 1085 ;
1086 [label="mse = 2.2\nsamples = 2\nvalue = 5.5"] ;
1046 -> 1086 ;
1087 [label="price <= 1.0\nmse = 6.9\nsamples = 17\nvalue = 4.6"] ;
1045 -> 1087 ;
1088 [label="price <= 1.0\nmse = 6.7\nsamples = 8\nvalue = 4.0"] ;
1087 -> 1088 ;
1089 [label="price <= 0.9\nmse = 7.8\nsamples = 4\nvalue = 5.2"] ;
1088 -> 1089 ;
1090 [label="price <= 0.9\nmse = 2.2\nsamples = 2\nvalue = 3.5"] ;
1089 -> 1090 ;
1091 [label="mse = 0.0\nsamples = 1\nvalue = 5.0"] ;
1090 -> 1091 ;
1092 [label="mse = 0.0\nsamples = 1\nvalue = 2.0"] ;
1090 -> 1092 ;
1093 [label="price <= 1.0\nmse = 2.2\nsamples = 2\nvalue = 8.5"] ;
1089 -> 1093 ;
1094 [label="mse = 0.0\nsamples = 1\nvalue = 10.0"] ;
1093 -> 1094 ;
1095 [label="mse = 0.0\nsamples = 1\nvalue = 7.0"] ;
1093 -> 1095 ;
1096 [label="BAG <= 0.5\nmse = 2.8\nsamples = 4\nvalue = 2.8"] ;
1088 -> 1096 ;
1097 [label="vol_eq <= 0.4\nmse = 2.6\nsamples = 3\nvalue = 3.2"] ;
1096 -> 1097 ;
1098 [label="mse = 3.0\nsamples = 2\nvalue = 3.0"] ;
1097 -> 1098 ;
1099 [label="mse = 0.0\nsamples = 1\nvalue = 4.0"] ;
1097 -> 1099 ;
1100 [label="mse = 0.0\nsamples = 1\nvalue = 1.0"] ;
1096 -> 1100 ;
1101 [label="price <= 1.5\nmse = 6.4\nsamples = 9\nvalue = 5.1"] ;
1087 -> 1101 ;
1102 [label="price <= 1.4\nmse = 7.0\nsamples = 4\nvalue = 7.4"] ;
1101 -> 1102 ;
1103 [label="PLASTIC BAG <= 0.5\nmse = 4.8\nsamples = 3\nvalue = 6.5"] ;
1102 -> 1103 ;
1104 [label="mse = 0.0\nsamples = 1\nvalue = 7.0"] ;
1103 -> 1104 ;
1105 [label="mse = 9.0\nsamples = 2\nvalue = 6.0"] ;
1103 -> 1105 ;
1106 [label="mse = 0.0\nsamples = 1\nvalue = 11.0"] ;
1102 -> 1106 ;
1107 [label="price <= 1.9\nmse = 1.7\nsamples = 5\nvalue = 3.9"] ;
1101 -> 1107 ;
1108 [label="price <= 1.6\nmse = 0.5\nsamples = 4\nvalue = 3.5"] ;
1107 -> 1108 ;
1109 [label="mse = 0.0\nsamples = 2\nvalue = 3.0"] ;
1108 -> 1109 ;
1110 [label="BAG <= 0.5\nmse = 0.2\nsamples = 2\nvalue = 4.3"] ;
1108 -> 1110 ;
1111 [label="mse = 0.0\nsamples = 1\nvalue = 5.0"] ;
1110 -> 1111 ;
1112 [label="mse = 0.0\nsamples = 1\nvalue = 4.0"] ;
1110 -> 1112 ;
1113 [label="mse = 0.0\nsamples = 1\nvalue = 7.0"] ;
1107 -> 1113 ;
1114 [label="mse = 0.0\nsamples = 1\nvalue = 13.0"] ;
1044 -> 1114 ;
1115 [label="price <= 1.5\nmse = 10.5\nsamples = 21\nvalue = 5.9"] ;
1043 -> 1115 ;
1116 [label="OAT <= 0.5\nmse = 1.7\nsamples = 6\nvalue = 7.5"] ;
1115 -> 1116 ;
1117 [label="REGULAR <= 0.5\nmse = 0.1\nsamples = 4\nvalue = 6.9"] ;
1116 -> 1117 ;
1118 [label="mse = 0.0\nsamples = 3\nvalue = 7.0"] ;
1117 -> 1118 ;
1119 [label="mse = 0.0\nsamples = 1\nvalue = 6.0"] ;
1117 -> 1119 ;
1120 [label="mse = 1.0\nsamples = 2\nvalue = 10.0"] ;
1116 -> 1120 ;
1121 [label="vol_eq <= 0.7\nmse = 12.8\nsamples = 15\nvalue = 5.2"] ;
1115 -> 1121 ;
1122 [label="price <= 1.5\nmse = 4.2\nsamples = 10\nvalue = 4.3"] ;
1121 -> 1122 ;
1123 [label="mse = 0.0\nsamples = 1\nvalue = 2.0"] ;
1122 -> 1123 ;
1124 [label="vol_eq <= 0.6\nmse = 3.5\nsamples = 9\nvalue = 4.9"] ;
1122 -> 1124 ;
1125 [label="mse = 0.0\nsamples = 1\nvalue = 9.0"] ;
1124 -> 1125 ;
1126 [label="price <= 2.0\nmse = 2.5\nsamples = 8\nvalue = 4.6"] ;
1124 -> 1126 ;
1127 [label="Feature_B <= 0.5\nmse = 2.8\nsamples = 4\nvalue = 5.4"] ;
1126 -> 1127 ;
1128 [label="mse = 2.2\nsamples = 3\nvalue = 6.5"] ;
1127 -> 1128 ;
1129 [label="mse = 0.0\nsamples = 1\nvalue = 4.0"] ;
1127 -> 1129 ;
1130 [label="OAT <= 0.5\nmse = 1.0\nsamples = 4\nvalue = 3.9"] ;
1126 -> 1130 ;
1131 [label="Display_0 <= 0.5\nmse = 0.2\nsamples = 2\nvalue = 2.5"] ;
1130 -> 1131 ;
1132 [label="mse = 0.0\nsamples = 1\nvalue = 2.0"] ;
1131 -> 1132 ;
1133 [label="mse = 0.0\nsamples = 1\nvalue = 3.0"] ;
1131 -> 1133 ;
1134 [label="mse = 0.2\nsamples = 2\nvalue = 4.4"] ;
1130 -> 1134 ;
1135 [label="price <= 1.9\nmse = 30.5\nsamples = 5\nvalue = 7.8"] ;
1121 -> 1135 ;
1136 [label="price <= 1.8\nmse = 6.2\nsamples = 2\nvalue = 4.5"] ;
1135 -> 1136 ;
1137 [label="mse = 0.0\nsamples = 1\nvalue = 7.0"] ;
1136 -> 1137 ;
1138 [label="mse = 0.0\nsamples = 1\nvalue = 2.0"] ;
1136 -> 1138 ;
1139 [label="mse = 34.2\nsamples = 3\nvalue = 9.5"] ;
1135 -> 1139 ;
1140 [label="mse = 0.0\nsamples = 1\nvalue = 12.0"] ;
1042 -> 1140 ;
1141 [label="Feature_NONE <= 0.5\nmse = 2.2\nsamples = 2\nvalue = 18.5"] ;
1041 -> 1141 ;
1142 [label="mse = 0.0\nsamples = 1\nvalue = 17.0"] ;
1141 -> 1142 ;
1143 [label="mse = 0.0\nsamples = 1\nvalue = 20.0"] ;
1141 -> 1143 ;
1144 [label="HONEY OAT <= 0.5\nmse = 135.6\nsamples = 214\nvalue = 13.3"] ;
1040 -> 1144 ;
1145 [label="WHOLE GRAIN WHEAT <= 0.5\nmse = 122.6\nsamples = 212\nvalue = 13.0"] ;
1144 -> 1145 ;
1146 [label="RICE AND WHEAT <= 0.5\nmse = 116.8\nsamples = 203\nvalue = 12.4"] ;
1145 -> 1146 ;
1147 [label="vol_eq <= 0.9\nmse = 110.8\nsamples = 199\nvalue = 12.1"] ;
1146 -> 1147 ;
1148 [label="MISSING <= 0.5\nmse = 93.1\nsamples = 80\nvalue = 9.3"] ;
1147 -> 1148 ;
1149 [label="OAT <= 0.5\nmse = 71.9\nsamples = 78\nvalue = 8.9"] ;
1148 -> 1149 ;
1150 [label="TOASTED <= 0.5\nmse = 42.4\nsamples = 73\nvalue = 8.2"] ;
1149 -> 1150 ;
1151 [label="Feature_A <= 0.5\nmse = 27.5\nsamples = 56\nvalue = 7.1"] ;
1150 -> 1151 ;
1152 [label="WHL GRN WHT WHT BRN <= 0.5\nmse = 23.7\nsamples = 54\nvalue = 6.8"] ;
1151 -> 1152 ;
1153 [label="REGULAR <= 0.5\nmse = 21.2\nsamples = 53\nvalue = 6.5"] ;
1152 -> 1153 ;
1154 [label="BAG <= 0.5\nmse = 10.0\nsamples = 37\nvalue = 5.6"] ;
1153 -> 1154 ;
1155 [label="price <= 2.2\nmse = 10.0\nsamples = 35\nvalue = 5.8"] ;
1154 -> 1155 ;
1156 [label="price <= 2.2\nmse = 9.9\nsamples = 34\nvalue = 5.6"] ;
1155 -> 1156 ;
1157 [label="price <= 2.1\nmse = 9.6\nsamples = 31\nvalue = 5.9"] ;
1156 -> 1157 ;
1158 [label="MULTI GRAIN <= 0.5\nmse = 9.4\nsamples = 29\nvalue = 5.6"] ;
1157 -> 1158 ;
1159 [label="HONEY ALMOND <= 0.5\nmse = 9.0\nsamples = 27\nvalue = 5.8"] ;
1158 -> 1159 ;
1160 [label="price <= 1.5\nmse = 8.7\nsamples = 26\nvalue = 6.0"] ;
1159 -> 1160 ;
1161 [label="price <= 1.4\nmse = 2.8\nsamples = 6\nvalue = 4.5"] ;
1160 -> 1161 ;
1162 [label="Feature_NONE <= 0.5\nmse = 0.4\nsamples = 3\nvalue = 5.0"] ;
1161 -> 1162 ;
1163 [label="mse = 0.0\nsamples = 1\nvalue = 4.0"] ;
1162 -> 1163 ;
1164 [label="price <= 1.1\nmse = 0.2\nsamples = 2\nvalue = 5.2"] ;
1162 -> 1164 ;
1165 [label="mse = 0.0\nsamples = 1\nvalue = 5.0"] ;
1164 -> 1165 ;
1166 [label="mse = 0.0\nsamples = 1\nvalue = 6.0"] ;
1164 -> 1166 ;
1167 [label="price <= 1.4\nmse = 5.6\nsamples = 3\nvalue = 3.7"] ;
1161 -> 1167 ;
1168 [label="mse = 0.0\nsamples = 1\nvalue = 2.0"] ;
1167 -> 1168 ;
1169 [label="mse = 6.2\nsamples = 2\nvalue = 4.5"] ;
1167 -> 1169 ;
1170 [label="price <= 1.5\nmse = 9.5\nsamples = 20\nvalue = 6.3"] ;
1160 -> 1170 ;
1171 [label="mse = 0.0\nsamples = 1\nvalue = 15.0"] ;
1170 -> 1171 ;
1172 [label="vol_eq <= 0.8\nmse = 7.4\nsamples = 19\nvalue = 6.1"] ;
1170 -> 1172 ;
1173 [label="mse = 0.0\nsamples = 1\nvalue = 2.0"] ;
1172 -> 1173 ;
1174 [label="GRANOLA <= 0.5\nmse = 7.1\nsamples = 18\nvalue = 6.2"] ;
1172 -> 1174 ;
1175 [label="vol_eq <= 0.8\nmse = 4.0\nsamples = 16\nvalue = 6.0"] ;
1174 -> 1175 ;
1176 [label="price <= 2.0\nmse = 2.6\nsamples = 5\nvalue = 7.1"] ;
1175 -> 1176 ;
1177 [label="price <= 1.9\nmse = 1.4\nsamples = 4\nvalue = 7.6"] ;
1176 -> 1177 ;
1178 [label="PLASTIC BAG <= 0.5\nmse = 0.5\nsamples = 3\nvalue = 7.2"] ;
1177 -> 1178 ;
1179 [label="price <= 1.8\nmse = 0.2\nsamples = 2\nvalue = 6.8"] ;
1178 -> 1179 ;
1180 [label="mse = 0.0\nsamples = 1\nvalue = 7.0"] ;
1179 -> 1180 ;
1181 [label="mse = 0.0\nsamples = 1\nvalue = 6.0"] ;
1179 -> 1181 ;
1182 [label="mse = 0.0\nsamples = 1\nvalue = 8.0"] ;
1178 -> 1182 ;
1183 [label="mse = 0.0\nsamples = 1\nvalue = 10.0"] ;
1177 -> 1183 ;
1184 [label="mse = 0.0\nsamples = 1\nvalue = 4.0"] ;
1176 -> 1184 ;
1185 [label="price <= 1.9\nmse = 3.8\nsamples = 11\nvalue = 5.6"] ;
1175 -> 1185 ;
1186 [label="price <= 1.9\nmse = 2.8\nsamples = 4\nvalue = 4.4"] ;
1185 -> 1186 ;
1187 [label="CORN <= 0.5\nmse = 2.0\nsamples = 2\nvalue = 6.0"] ;
1186 -> 1187 ;
1188 [label="mse = 0.0\nsamples = 1\nvalue = 5.0"] ;
1187 -> 1188 ;
1189 [label="mse = 0.0\nsamples = 1\nvalue = 8.0"] ;
1187 -> 1189 ;
1190 [label="CORN <= 0.5\nmse = 0.2\nsamples = 2\nvalue = 3.2"] ;
1186 -> 1190 ;
1191 [label="mse = 0.0\nsamples = 1\nvalue = 3.0"] ;
1190 -> 1191 ;
1192 [label="mse = 0.0\nsamples = 1\nvalue = 4.0"] ;
1190 -> 1192 ;
1193 [label="vol_eq <= 0.9\nmse = 3.4\nsamples = 7\nvalue = 6.2"] ;
1185 -> 1193 ;
1194 [label="mse = 5.6\nsamples = 2\nvalue = 5.3"] ;
1193 -> 1194 ;
1195 [label="CHOCOLATE <= 0.5\nmse = 2.4\nsamples = 5\nvalue = 6.4"] ;
1193 -> 1195 ;
1196 [label="price <= 2.0\nmse = 3.0\nsamples = 4\nvalue = 6.5"] ;
1195 -> 1196 ;
1197 [label="mse = 3.1\nsamples = 3\nvalue = 6.3"] ;
1196 -> 1197 ;
1198 [label="mse = 0.0\nsamples = 1\nvalue = 8.0"] ;
1196 -> 1198 ;
1199 [label="mse = 0.0\nsamples = 1\nvalue = 6.0"] ;
1195 -> 1199 ;
1200 [label="mse = 32.0\nsamples = 2\nvalue = 8.0"] ;
1174 -> 1200 ;
1201 [label="mse = 0.0\nsamples = 1\nvalue = 2.0"] ;
1159 -> 1201 ;
1202 [label="ORIGINAL <= 0.5\nmse = 0.2\nsamples = 2\nvalue = 1.5"] ;
1158 -> 1202 ;
1203 [label="mse = 0.0\nsamples = 1\nvalue = 2.0"] ;
1202 -> 1203 ;
1204 [label="mse = 0.0\nsamples = 1\nvalue = 1.0"] ;
1202 -> 1204 ;
1205 [label="vol_eq <= 0.8\nmse = 1.0\nsamples = 2\nvalue = 9.0"] ;
1157 -> 1205 ;
1206 [label="mse = 0.0\nsamples = 1\nvalue = 8.0"] ;
1205 -> 1206 ;
1207 [label="mse = 0.0\nsamples = 1\nvalue = 10.0"] ;
1205 -> 1207 ;
1208 [label="mse = 0.0\nsamples = 3\nvalue = 2.0"] ;
1156 -> 1208 ;
1209 [label="mse = 0.0\nsamples = 1\nvalue = 9.0"] ;
1155 -> 1209 ;
1210 [label="HONEY NUT <= 0.5\nmse = 0.8\nsamples = 2\nvalue = 2.5"] ;
1154 -> 1210 ;
1211 [label="mse = 0.0\nsamples = 1\nvalue = 4.0"] ;
1210 -> 1211 ;
1212 [label="mse = 0.0\nsamples = 1\nvalue = 2.0"] ;
1210 -> 1212 ;
1213 [label="price <= 2.0\nmse = 41.4\nsamples = 16\nvalue = 9.1"] ;
1153 -> 1213 ;
1214 [label="price <= 1.4\nmse = 27.3\nsamples = 14\nvalue = 7.9"] ;
1213 -> 1214 ;
1215 [label="price <= 1.2\nmse = 3.0\nsamples = 4\nvalue = 13.8"] ;
1214 -> 1215 ;
1216 [label="price <= 0.9\nmse = 4.2\nsamples = 3\nvalue = 14.3"] ;
1215 -> 1216 ;
1217 [label="mse = 0.0\nsamples = 1\nvalue = 14.0"] ;
1216 -> 1217 ;
1218 [label="mse = 6.2\nsamples = 2\nvalue = 14.5"] ;
1216 -> 1218 ;
1219 [label="mse = 0.0\nsamples = 1\nvalue = 13.0"] ;
1215 -> 1219 ;
1220 [label="price <= 1.5\nmse = 20.7\nsamples = 10\nvalue = 6.1"] ;
1214 -> 1220 ;
1221 [label="price <= 1.4\nmse = 0.2\nsamples = 2\nvalue = 1.7"] ;
1220 -> 1221 ;
1222 [label="mse = 0.0\nsamples = 1\nvalue = 2.0"] ;
1221 -> 1222 ;
1223 [label="mse = 0.0\nsamples = 1\nvalue = 1.0"] ;
1221 -> 1223 ;
1224 [label="Display_0 <= 0.5\nmse = 19.9\nsamples = 8\nvalue = 7.1"] ;
1220 -> 1224 ;
1225 [label="mse = 0.0\nsamples = 1\nvalue = 1.0"] ;
1224 -> 1225 ;
1226 [label="CORN <= 0.5\nmse = 15.6\nsamples = 7\nvalue = 8.2"] ;
1224 -> 1226 ;
1227 [label="vol_eq <= 0.8\nmse = 1.2\nsamples = 3\nvalue = 3.8"] ;
1226 -> 1227 ;
1228 [label="mse = 0.0\nsamples = 1\nvalue = 2.0"] ;
1227 -> 1228 ;
1229 [label="WHOLE GRAIN OAT <= 0.5\nmse = 0.2\nsamples = 2\nvalue = 4.3"] ;
1227 -> 1229 ;
1230 [label="mse = 0.0\nsamples = 1\nvalue = 5.0"] ;
1229 -> 1230 ;
1231 [label="mse = 0.0\nsamples = 1\nvalue = 4.0"] ;
1229 -> 1231 ;
1232 [label="price <= 1.5\nmse = 6.2\nsamples = 4\nvalue = 10.7"] ;
1226 -> 1232 ;
1233 [label="vol_eq <= 0.8\nmse = 4.7\nsamples = 2\nvalue = 12.2"] ;
1232 -> 1233 ;
1234 [label="mse = 0.0\nsamples = 1\nvalue = 16.0"] ;
1233 -> 1234 ;
1235 [label="mse = 0.0\nsamples = 1\nvalue = 11.0"] ;
1233 -> 1235 ;
1236 [label="vol_eq <= 0.8\nmse = 0.9\nsamples = 2\nvalue = 8.7"] ;
1232 -> 1236 ;
1237 [label="mse = 0.0\nsamples = 1\nvalue = 8.0"] ;
1236 -> 1237 ;
1238 [label="mse = 0.0\nsamples = 1\nvalue = 10.0"] ;
1236 -> 1238 ;
1239 [label="CORN AND RICE <= 0.5\nmse = 20.2\nsamples = 2\nvalue = 21.5"] ;
1213 -> 1239 ;
1240 [label="mse = 0.0\nsamples = 1\nvalue = 17.0"] ;
1239 -> 1240 ;
1241 [label="mse = 0.0\nsamples = 1\nvalue = 26.0"] ;
1239 -> 1241 ;
1242 [label="mse = 0.0\nsamples = 1\nvalue = 18.0"] ;
1152 -> 1242 ;
1243 [label="price <= 1.8\nmse = 16.0\nsamples = 2\nvalue = 20.0"] ;
1151 -> 1243 ;
1244 [label="mse = 0.0\nsamples = 1\nvalue = 24.0"] ;
1243 -> 1244 ;
1245 [label="mse = 0.0\nsamples = 1\nvalue = 16.0"] ;
1243 -> 1245 ;
1246 [label="vol_eq <= 0.8\nmse = 77.6\nsamples = 17\nvalue = 12.6"] ;
1150 -> 1246 ;
1247 [label="price <= 2.0\nmse = 25.8\nsamples = 3\nvalue = 23.2"] ;
1246 -> 1247 ;
1248 [label="mse = 26.9\nsamples = 2\nvalue = 20.7"] ;
1247 -> 1248 ;
1249 [label="mse = 0.0\nsamples = 1\nvalue = 27.0"] ;
1247 -> 1249 ;
1250 [label="price <= 1.7\nmse = 50.0\nsamples = 14\nvalue = 9.5"] ;
1246 -> 1250 ;
1251 [label="mse = 0.0\nsamples = 1\nvalue = 22.0"] ;
1250 -> 1251 ;
1252 [label="price <= 2.1\nmse = 33.0\nsamples = 13\nvalue = 7.8"] ;
1250 -> 1252 ;
1253 [label="vol_eq <= 0.8\nmse = 32.7\nsamples = 11\nvalue = 8.6"] ;
1252 -> 1253 ;
1254 [label="mse = 0.0\nsamples = 1\nvalue = 24.0"] ;
1253 -> 1254 ;
1255 [label="price <= 2.0\nmse = 14.1\nsamples = 10\nvalue = 7.3"] ;
1253 -> 1255 ;
1256 [label="price <= 2.0\nmse = 9.5\nsamples = 9\nvalue = 6.6"] ;
1255 -> 1256 ;
1257 [label="RICE <= 0.5\nmse = 11.7\nsamples = 4\nvalue = 8.2"] ;
1256 -> 1257 ;
1258 [label="WHOLE GRAIN OAT <= 0.5\nmse = 2.2\nsamples = 2\nvalue = 11.5"] ;
1257 -> 1258 ;
1259 [label="mse = 0.0\nsamples = 1\nvalue = 13.0"] ;
1258 -> 1259 ;
1260 [label="mse = 0.0\nsamples = 1\nvalue = 10.0"] ;
1258 -> 1260 ;
1261 [label="mse = 0.0\nsamples = 2\nvalue = 5.0"] ;
1257 -> 1261 ;
1262 [label="RICE <= 0.5\nmse = 5.9\nsamples = 5\nvalue = 5.7"] ;
1256 -> 1262 ;
1263 [label="CORN <= 0.5\nmse = 0.2\nsamples = 2\nvalue = 2.5"] ;
1262 -> 1263 ;
1264 [label="mse = 0.0\nsamples = 1\nvalue = 3.0"] ;
1263 -> 1264 ;
1265 [label="mse = 0.0\nsamples = 1\nvalue = 2.0"] ;
1263 -> 1265 ;
1266 [label="vol_eq <= 0.8\nmse = 2.4\nsamples = 3\nvalue = 7.0"] ;
1262 -> 1266 ;
1267 [label="mse = 0.0\nsamples = 1\nvalue = 4.0"] ;
1266 -> 1267 ;
1268 [label="price <= 2.0\nmse = 0.2\nsamples = 2\nvalue = 7.8"] ;
1266 -> 1268 ;
1269 [label="mse = 0.0\nsamples = 1\nvalue = 7.0"] ;
1268 -> 1269 ;
1270 [label="mse = 0.0\nsamples = 1\nvalue = 8.0"] ;
1268 -> 1270 ;
1271 [label="mse = 0.0\nsamples = 1\nvalue = 15.0"] ;
1255 -> 1271 ;
1272 [label="vol_eq <= 0.8\nmse = 2.2\nsamples = 2\nvalue = 2.5"] ;
1252 -> 1272 ;
1273 [label="mse = 0.0\nsamples = 1\nvalue = 1.0"] ;
1272 -> 1273 ;
1274 [label="mse = 0.0\nsamples = 1\nvalue = 4.0"] ;
1272 -> 1274 ;
1275 [label="price <= 1.8\nmse = 494.2\nsamples = 5\nvalue = 23.4"] ;
1149 -> 1275 ;
1276 [label="mse = 225.0\nsamples = 2\nvalue = 47.0"] ;
1275 -> 1276 ;
1277 [label="price <= 1.9\nmse = 54.9\nsamples = 3\nvalue = 7.7"] ;
1275 -> 1277 ;
1278 [label="mse = 0.0\nsamples = 1\nvalue = 18.0"] ;
1277 -> 1278 ;
1279 [label="price <= 2.1\nmse = 2.2\nsamples = 2\nvalue = 2.5"] ;
1277 -> 1279 ;
1280 [label="mse = 0.0\nsamples = 1\nvalue = 4.0"] ;
1279 -> 1280 ;
1281 [label="mse = 0.0\nsamples = 1\nvalue = 1.0"] ;
1279 -> 1281 ;
1282 [label="vol_eq <= 0.8\nmse = 729.0\nsamples = 2\nvalue = 33.0"] ;
1148 -> 1282 ;
1283 [label="mse = 0.0\nsamples = 1\nvalue = 6.0"] ;
1282 -> 1283 ;
1284 [label="mse = 0.0\nsamples = 1\nvalue = 60.0"] ;
1282 -> 1284 ;
1285 [label="Display_1 <= 0.5\nmse = 113.9\nsamples = 119\nvalue = 13.7"] ;
1147 -> 1285 ;
1286 [label="price <= 1.6\nmse = 107.9\nsamples = 118\nvalue = 13.5"] ;
1285 -> 1286 ;
1287 [label="price <= 1.4\nmse = 140.9\nsamples = 5\nvalue = 23.7"] ;
1286 -> 1287 ;
1288 [label="price <= 1.1\nmse = 2.2\nsamples = 2\nvalue = 8.5"] ;
1287 -> 1288 ;
1289 [label="mse = 0.0\nsamples = 1\nvalue = 10.0"] ;
1288 -> 1289 ;
1290 [label="mse = 0.0\nsamples = 1\nvalue = 7.0"] ;
1288 -> 1290 ;
1291 [label="vol_eq <= 1.0\nmse = 96.0\nsamples = 3\nvalue = 28.0"] ;
1287 -> 1291 ;
1292 [label="mse = 0.0\nsamples = 1\nvalue = 4.0"] ;
1291 -> 1292 ;
1293 [label="mse = 0.0\nsamples = 2\nvalue = 32.0"] ;
1291 -> 1293 ;
1294 [label="REGULAR <= 0.5\nmse = 101.2\nsamples = 113\nvalue = 13.0"] ;
1286 -> 1294 ;
1295 [label="WHEAT <= 0.5\nmse = 126.1\nsamples = 67\nvalue = 14.9"] ;
1294 -> 1295 ;
1296 [label="MULTI GRAIN <= 0.5\nmse = 107.5\nsamples = 64\nvalue = 14.1"] ;
1295 -> 1296 ;
1297 [label="price <= 2.2\nmse = 118.5\nsamples = 52\nvalue = 15.3"] ;
1296 -> 1297 ;
1298 [label="price <= 2.0\nmse = 117.6\nsamples = 48\nvalue = 15.9"] ;
1297 -> 1298 ;
1299 [label="RICE <= 0.5\nmse = 53.2\nsamples = 14\nvalue = 12.4"] ;
1298 -> 1299 ;
1300 [label="price <= 1.8\nmse = 28.6\nsamples = 11\nvalue = 9.2"] ;
1299 -> 1300 ;
1301 [label="vol_eq <= 1.0\nmse = 28.9\nsamples = 5\nvalue = 13.1"] ;
1300 -> 1301 ;
1302 [label="mse = 0.0\nsamples = 1\nvalue = 3.0"] ;
1301 -> 1302 ;
1303 [label="price <= 1.7\nmse = 16.2\nsamples = 4\nvalue = 14.6"] ;
1301 -> 1303 ;
1304 [label="price <= 1.7\nmse = 12.0\nsamples = 2\nvalue = 13.0"] ;
1303 -> 1304 ;
1305 [label="mse = 0.0\nsamples = 1\nvalue = 15.0"] ;
1304 -> 1305 ;
1306 [label="mse = 0.0\nsamples = 1\nvalue = 7.0"] ;
1304 -> 1306 ;
1307 [label="price <= 1.8\nmse = 14.2\nsamples = 2\nvalue = 16.7"] ;
1303 -> 1307 ;
1308 [label="mse = 0.0\nsamples = 1\nvalue = 22.0"] ;
1307 -> 1308 ;
1309 [label="mse = 0.0\nsamples = 1\nvalue = 14.0"] ;
1307 -> 1309 ;
1310 [label="price <= 1.9\nmse = 9.1\nsamples = 6\nvalue = 6.4"] ;
1300 -> 1310 ;
1311 [label="price <= 1.9\nmse = 2.4\nsamples = 4\nvalue = 4.9"] ;
1310 -> 1311 ;
1312 [label="ORIGINAL <= 0.5\nmse = 0.2\nsamples = 3\nvalue = 5.4"] ;
1311 -> 1312 ;
1313 [label="mse = 0.0\nsamples = 2\nvalue = 5.0"] ;
1312 -> 1313 ;
1314 [label="mse = 0.0\nsamples = 1\nvalue = 6.0"] ;
1312 -> 1314 ;
1315 [label="mse = 0.0\nsamples = 1\nvalue = 1.0"] ;
1311 -> 1315 ;
1316 [label="CORN <= 0.5\nmse = 5.6\nsamples = 2\nvalue = 10.3"] ;
1310 -> 1316 ;
1317 [label="mse = 0.0\nsamples = 1\nvalue = 12.0"] ;
1316 -> 1317 ;
1318 [label="mse = 0.0\nsamples = 1\nvalue = 7.0"] ;
1316 -> 1318 ;
1319 [label="Feature_NONE <= 0.5\nmse = 16.1\nsamples = 3\nvalue = 21.1"] ;
1299 -> 1319 ;
1320 [label="mse = 0.0\nsamples = 1\nvalue = 29.0"] ;
1319 -> 1320 ;
1321 [label="price <= 1.8\nmse = 6.8\nsamples = 2\nvalue = 19.8"] ;
1319 -> 1321 ;
1322 [label="mse = 0.0\nsamples = 1\nvalue = 21.0"] ;
1321 -> 1322 ;
1323 [label="mse = 0.0\nsamples = 1\nvalue = 14.0"] ;
1321 -> 1323 ;
1324 [label="price <= 2.0\nmse = 138.7\nsamples = 34\nvalue = 17.5"] ;
1298 -> 1324 ;
1325 [label="HONEY <= 0.5\nmse = 153.1\nsamples = 18\nvalue = 21.5"] ;
1324 -> 1325 ;
1326 [label="RICE <= 0.5\nmse = 132.5\nsamples = 17\nvalue = 23.0"] ;
1325 -> 1326 ;
1327 [label="BERRY <= 0.5\nmse = 119.8\nsamples = 15\nvalue = 24.9"] ;
1326 -> 1327 ;
1328 [label="price <= 2.0\nmse = 101.7\nsamples = 14\nvalue = 25.9"] ;
1327 -> 1328 ;
1329 [label="price <= 2.0\nmse = 19.1\nsamples = 4\nvalue = 19.4"] ;
1328 -> 1329 ;
1330 [label="TOASTED <= 0.5\nmse = 1.0\nsamples = 2\nvalue = 23.0"] ;
1329 -> 1330 ;
1331 [label="mse = 0.0\nsamples = 1\nvalue = 22.0"] ;
1330 -> 1331 ;
1332 [label="mse = 0.0\nsamples = 1\nvalue = 24.0"] ;
1330 -> 1332 ;
1333 [label="CORN <= 0.5\nmse = 3.6\nsamples = 2\nvalue = 14.7"] ;
1329 -> 1333 ;
1334 [label="mse = 0.0\nsamples = 1\nvalue = 16.0"] ;
1333 -> 1334 ;
1335 [label="mse = 0.0\nsamples = 1\nvalue = 12.0"] ;
1333 -> 1335 ;
1336 [label="vol_eq <= 1.2\nmse = 111.6\nsamples = 10\nvalue = 29.1"] ;
1328 -> 1336 ;
1337 [label="WHOLE GRAIN OAT <= 0.5\nmse = 91.9\nsamples = 8\nvalue = 31.4"] ;
1336 -> 1337 ;
